Start
0.028569424239962993 -0.12766917714665715 -0.003944967381095171 0.019024678573017467 0.005968842875782745 -0.004662178673642733 -0.07305310941244415 0.046987171161345515 -0.004413784214101564 -0.06402488852204453 0.010343688658792125 0.030772938508324788 -0.09407275334873462 0.006855747357106731 -0.07338149028330945 0.043000923874298894 0.05756776995124557 0.014962165071033099 0.08650886023727218 -0.06932589236141853 -0.019587181207272313 -0.08584215234409184 -0.006969066725291431 -0.10541236969838756 -0.08575418398782618 0.003729209638579674 -0.09480247044835259 -0.06066683139677105 -0.018078413344070603 -0.08177077658515751 0.012640826504829826 -0.044333863353281634 0.022207624821553907 -0.008808277035952702 0.0007289161972583832 -0.02927549029840579 0.04854865957774104 -0.01826958525362273 -0.056964446649327344 0.04967115776357332 0.11811629266759878 -0.0025200582681041022 0.06920226193831201 -0.050447789421076306 -0.0006253161810308201 -0.02572320279558309 -0.014694432286335182 0.0686687935056501 -0.0005748083416381321 0.07593034278065203 0.03177213638357618 -0.09321677009735563 -0.025204307584463886 0.06837747843806535 -0.044684835740402655 -0.11401708573489912 -0.02050756811985376 -0.08104658543490822 0.09744016822466002 0.04287924366172082 0.08229842362417283 0.002364670962427829 0.06462470956533445 -0.08109778939225769 0.025055901881623932 0.018682904081858798 -0.0044892754964304124 -0.06196166927984097 0.09636939455644972 0.007481887111819877 0.022944089514654882 -0.03049416055993542 -0.04948548504002403 -0.011038673870074626 0.04891353590054297 0.046514654762062846 -0.027160351214924324 -0.09464160615978061 0.04341748916442875 -0.08705275417823198 0.03684466569399271 -0.12008587450063679 -0.019883666585873656 -0.012296422635112913 -0.010879981912117554 -0.039057455152133845 1.3411735448020705e-05 0.001582377292241569 0.07730188987370218 -0.09535101377656188 -0.06385426445637736 -0.06917626823795733 0.03773561024239591 0.015989493427496282 -0.08129580143919238 -0.01843980705761273 0.04579669066537725 -0.018030813736840835 -0.058168006882319365 0.09956703500486416 
0.07355042018266382 -0.06207205968007368 0.0872223764734531 0.08361157397205864 0.027986990018985174 0.0417653515091183 -0.050847120879306026 0.09131695512736497 0.02487285815808708 -0.06886588579625423 -0.0729960678165004 0.1216161247725227 -0.049942858974958856 -0.00971941580666172 -0.008250671142815181 0.07517962292862199 -0.0005097038937950726 -0.039091707077352045 0.03476025998937997 0.012886636442808184 0.00379554776126119 0.03509207613774146 -0.0461900437228711 -0.050497794011905635 -0.06369675042334005 -0.05554377679432773 -0.11452135657063452 0.05592189269058257 -0.04271297696166353 -0.08487382350424584 -0.08644048972045124 -0.05474421288388494 -0.0791148356575018 -0.033438511238913754 -0.0008555151457558962 -0.007539671215087976 0.059326113280080695 0.09231494014175219 -0.06628808493349653 -0.025331992988035127 0.028832620443715654 -0.08892461077959726 0.06365056656007931 -0.07426043292851733 0.05505871449531968 0.053910529411943985 0.051029677593623424 -0.07540136537485867 -0.038968553715425056 -0.01674945672999778 -0.08947605542898684 -0.1149466204319331 0.008857421573685659 -0.005077443980859831 -0.08223310959206291 -0.09359039790107167 -0.0340489978716024 0.0018497525284686966 0.014683792385801052 -0.09270235811033091 0.05705569605406592 -0.043283948518157596 0.004156589051418433 -0.09215439829558615 0.05266466456816544 0.10285653898619528 -0.01818078722640807 -0.054572877524833294 -0.02475737551437484 0.030349446263330197 0.021796730430922975 0.007259719301441836 -0.05392844782873144 -0.07141255870998393 0.015387167961006504 0.05044510201115118 0.0711525622321216 0.08478445820112887 -0.031092751687024838 0.04081669117597001 -0.028295104928677737 -0.005478285660588542 0.027912940060188615 0.08863928715872445 -0.030518324275630768 0.05119898115784222 -0.008089599953769953 0.055258543347687594 -0.09009628192314795 -0.10968095571763556 0.0604900892731095 -0.05457557364400878 0.013568383740712673 -0.07820368701503609 -0.1017983816440002 -0.013496911108446074 0.1161927528673602 -0.025110035966175896 0.12786646067795018 0.06469999063643547 
0.003347187589467884 0.010289284946078883 -0.0704505397396446 -0.08110340327623623 0.00928442644541342 -0.010631103007078228 0.08001962667754253 0.04207022760375704 0.07274013765394802 0.06251536748266828 0.07223729262701048 0.043572526499198384 -0.10205721349047912 -0.010189608612272616 -0.08145523164688635 0.08018648045731776 0.0680987287909413 -0.02585492159076417 0.002470388003810322 0.0372094504868106 0.032766908118732445 -0.09294201020314148 0.037567386433607235 0.09971246083466351 -0.05101478853253684 -0.13245734151061297 -0.017770747205428792 -0.04210832044336119 0.11512479770006803 0.03674301909630913 0.03997474729653886 0.05028855161530558 -0.019621006998923718 -0.08561095996884888 0.0019014032318454743 -0.013518319631202943 0.04463806099368496 -0.004526189230833242 -0.031088578136513632 0.0625368504665743 -0.014223604932733013 -0.10020671589725587 0.02441543327816827 -0.01028475619183785 -0.04509413387116779 0.029063390974976868 0.1079511269307702 -0.07724140374777458 0.018354854720223072 0.043222128507540716 -0.05184293159144343 0.04396773057612802 -0.01273231618980761 -0.08176877202793251 0.019369199910178898 -0.032580008767062005 -0.033834647259234636 -0.058960717213906874 -0.07170656652579889 -0.023052045307043304 0.021716495612107922 -0.09157694403031993 0.014518544681447603 -0.1007405962739024 -0.03355299061104714 0.0536755927024819 0.09532376957682136 0.09062903000149634 0.037527298579127656 0.02847684628566694 -0.08604879811300754 0.021008139041445786 -0.0676453358146677 0.0023956152838655056 -0.0020463917240444926 0.047412612314371 -0.04461889788118223 0.0901706894991972 0.08436778233112985 0.05907906686836524 0.06585459903072871 0.07209358479031389 0.031524776280409325 0.09491778102145976 0.06518480941854875 0.05589927479744555 -0.04268378453112956 -0.029576486102983652 0.0017704948995527804 -0.10081232729186441 0.0941755255734041 0.024471135902753283 -0.003800692614850853 -0.013629586424880609 -0.039166187338699796 -0.0702321191884743 -0.04829490767632408 -0.023291810137738348 -0.028456790894990237 0.08795118233667804 
-0.08250001242633173 -0.007462301536803846 -0.05550297724278114 -0.06142875796847015 0.09162908155313504 0.01208340336794222 0.04578933590623657 -0.10371772380490525 -0.04703313302062689 0.04039323209219525 0.05723564621647653 -0.03889253261070049 0.08476912835318026 0.009644071679597192 -0.033172487621227736 -0.04634494794264381 -0.0434478248476791 0.08167858722271092 0.05616614035079237 -0.011290361399759644 -0.11010352851961766 -0.07315076875445577 0.07654821228946196 0.02693340914579726 -0.043103917351622445 -0.16585582950445676 -0.04551991899304359 -0.023968321104994517 -0.042742294758003285 -0.025396034357022184 -0.05514973426884755 -0.05474781196349138 -0.07661098945360406 -0.004411908095540257 -0.06913773714265686 0.08500920714161622 -0.1013381765437388 -0.01024414108073547 -0.03265534082110279 -0.03184476756330773 -0.019401765357878666 -0.01522757702638678 -0.06802003965395645 -0.08624787381458411 0.0020334592159461412 0.03903823970217614 -0.029454840260530597 0.10357335951656202 -0.033212697443323926 0.0012031661417849838 0.032078612041246506 -0.018222150868768366 0.07738993331838975 0.07298111600156362 0.06996988627696171 0.06008688667126203 -0.05126416213860178 -0.030030917856123527 0.1198447611856284 -0.06485979706019128 -0.06104389680257218 0.019909340637566133 0.03850755779874274 -0.02603797248408845 -0.03374381901237876 0.05905274916712209 -0.08413368687302944 0.05004147859137231 -0.013683418336747596 0.006741244867680111 0.02580660331859821 -0.10078306516717879 0.08190725659187692 0.06780611377943137 -0.04169493876684637 -0.0658594701041566 -0.07306989206983551 -0.03669146152797714 0.000328672544159705 0.03953934919121055 -0.0048122782296915675 -0.035169377200552125 -0.05479636167973842 0.09161016578204903 -0.05258614161572769 -0.04416545260845992 0.05944783559984405 -0.09178147905904115 -0.05174383760617408 0.06872516677380115 -0.050093296481113436 0.0032155702339754775 0.01150383617478911 -0.07300077791134094 -0.03553822295680788 -0.04420924230911004 0.08108509679182595 -0.09026423276291447 -0.05454980213536781 -0.04276441620146193 
-0.017436210192186333 0.030381393615119528 -0.0032568691912909235 0.022612834964083877 -0.023862290950668177 0.007459944480253948 0.06390574271659528 0.050132345106598496 0.039754124573231416 0.015558321060361754 -0.09775547657641818 -0.05739950638826943 0.02770372988201358 -0.03483190758601733 -0.036645308769760444 0.00881553145378383 -0.0034485328501401374 0.05805547480039677 -0.012331039648753308 0.029042166185767 0.02296056085458241 0.05672086682173282 -0.0072152720960933225 0.09415600232273912 0.005300387473587695 0.03548946749675508 0.035643107745306664 0.06543874205612663 -0.013522710798298724 0.09623941491230752 0.007134163539481486 0.0310954412299278 -0.051065047909543346 0.054043365785677 0.022324052176865325 -0.022258182970956632 0.06034787501359462 0.00610999095787076 0.008902863836927078 -0.09328410831187717 -0.00020139982648758643 0.056726571190904594 -0.0163652419188279 0.03583282013845514 -0.004305238330812121 -0.05242893304979495 -0.0032496424980739667 -0.01603359696669781 -0.0511117614006432 0.034276724333028016 -0.027472084518897176 0.002730029116679099 -0.022214095202410862 0.058951708278313864 0.04078993887387618 0.018873551946982394 -0.018473544832061012 0.009588526637929773 -0.019229101356194014 0.07601839723712568 0.004514660543778682 0.08050554049586191 0.012826133220491682 0.06942501133125067 -0.050028380352171345 0.03282232303675402 0.07767089249862767 -0.046443593123504705 -0.05438495936786307 -0.02395353850077269 -0.013414244291490423 0.0088613527535203 0.0006423748106961269 0.07924601826831797 -0.006903260150395492 0.07226816544853268 -0.004965513139272305 -0.04984885004444486 0.0626126617725304 0.08168655532837585 0.003899522820746 0.041052196822731216 0.010526742264780781 -0.047345574256484946 -0.0014352937203085468 0.02681063856470255 -0.0025442232191860772 -0.0001476925869798648 0.008083446524703266 0.029641030256643625 0.026716012035054533 -0.1062447037508828 0.07772763992264395 -0.01956922796646824 0.04099107459427219 -0.04559732132869507 -0.08075967013158582 0.041234241485623734 -0.03997654105535903 -0.014048844937863472 
-0.0366706937764713 -0.049756007246132085 -0.029591429197788854 0.09059473710305153 0.0859915860646581 0.10812044350992255 0.0019266547123049293 -0.001234149397267408 -0.04186658588171122 0.014861679098567046 -0.03162746158363816 0.07222609153096743 -0.08620333857437791 0.04798880934171015 -0.10408835156270756 0.0946319844181156 -0.035666144097196664 -0.05900393568963517 -0.02687921219377686 0.031122229000135386 0.003369605696678856 -0.08265355570705023 -0.048586598038655796 0.06828836510519619 0.035642654953893245 -0.09097791188534435 0.05022673479591641 -0.055582000665015646 -0.01907627984519669 -0.11047536922395763 0.0023368737524351903 0.033425002142409156 0.08468836075276683 -0.00013510067682655282 -0.07326804591735393 -0.029360750884036307 -0.06117218272963424 -0.05298783501442594 -0.018744309919296494 0.08739941670181495 -0.0172687704915408 -0.13373092809782752 0.015719791092444677 0.0076051826717073905 0.04851683300491956 0.04028289352797204 0.030011183658306535 -0.049353934017267426 -0.04259830725396246 -0.005749579056143676 -0.0584433741207956 -0.0413526448369137 -0.0566583846047314 -0.05068596782691541 0.08050902112430149 -0.07471987054017461 0.012201503747014255 0.03973949037031473 0.07958975670758373 -0.08366222827994862 -0.06278947414150178 0.08794818654059836 -0.030155626255053906 -0.06656881560443434 -0.04573143576733125 -0.010763067022848235 -0.03217006034077921 -0.012387935977630571 -0.036111223469987526 0.05077711346646711 0.004002228382014391 0.04341240276626111 -0.010166705472154612 -0.04101664385844259 0.09971851031790141 -0.04423767914703788 0.04285162232863557 0.0169470539329118 0.019621436445109913 -0.08929947279071786 -0.07207510023180404 0.043866231730047195 -0.11485105819720323 -0.057124394031002786 0.057328874813390336 0.08641781956957964 0.07728938997693481 0.021083276189119874 0.0055401013604013186 -0.009672916791950535 -0.020525405368887254 0.06840892918356821 0.04684937520988388 0.05567305383732975 -0.04413593575608864 -0.00011163176338443702 0.034814011894547615 -0.06423981443883901 0.06562825256618167 -0.00042496738251081436 
-0.03672655397703602 -0.051682504361065223 0.02390293623092768 -0.022055121118124733 -0.01989810312571626 -0.00816216710354593 -0.07806530701058542 0.012170479198927964 0.0460022519688417 -0.04746312419688386 0.047031396191466665 0.024860428147354268 0.06736953759688395 -0.014898400023582047 -0.09200883820744005 -0.03951127141530558 0.019443019521576954 0.02100018986279036 -0.04363790697447542 -0.0038016956371720013 -0.005822703217039558 0.034761329575437816 -0.0945342754083992 -0.043028445785016814 -0.0038637219748919524 -0.09460015438580957 0.08296646400733095 -0.03254210859153483 0.05345664606189159 -0.014188693649513954 0.05267451301665197 -0.08946648801473292 -0.03294532902737354 -0.004336566192358067 -0.03875009520621038 0.013308023462691993 -0.012389349583731798 0.05401267759224498 0.006341766364706689 -0.03758291116821395 -0.01835138095032197 -0.033708746811425855 0.07142561102108243 0.053889481563880993 -0.04199556456099538 -0.008480953032607525 -0.05810555990013437 0.023639051994132174 0.01637398093592847 -0.05829184520379132 0.020838146221453788 -0.018093009771909568 -0.0009296526871242566 0.012955076913776424 -0.037662798645976284 0.0426416494788367 -0.004182700091184681 0.004150418108946766 -0.04043272575155044 -0.07575441193566305 0.06293249036712487 -0.05223241927028664 -0.011639391196341456 0.028738365416569392 -0.005032802559754933 -0.001739141347546362 0.03027154888504 0.0010764143521152885 -0.016647344126210682 -0.02688937103528907 0.08306529167341002 0.0049126520652439006 0.0389671189687664 0.021771575873014225 -0.03355032978892537 -0.017259211976727848 0.08473311069288804 0.049355739751796905 0.04526120495664563 -0.0629230459926516 0.003653221325967577 -0.05257776722394682 0.05860092351982422 0.016757489361537484 0.029740831570060022 0.011141966176096215 -0.06839575058288463 -0.03535848625859464 -0.021052934386458718 0.016838923070627402 0.06057357083187024 0.024490614229364296 -0.02655126270859793 -0.08681550932778005 0.03574119431629017 -0.009997697236754722 -0.0490841884685507 -0.00652765286590871 -0.04556858389067751 -0.04959991255645823 
-0.10143149836128657 -0.07384540016584486 -0.0266871819707137 -0.04802986656367715 -0.10012437025513851 -0.039262017710194906 0.052327684922391336 -0.1422847514738069 -0.041439770553545495 0.09077377330645864 0.037506985710893975 0.07770477113242502 0.03304984626946091 -0.0321543645123027 0.029840701644032984 -0.01664903866314148 0.0983055568340022 0.07237580778031315 -0.10817873283312618 0.02446796002678148 -0.10335321273258109 -0.02144764307536208 0.0008096448088815631 -0.02198915530163952 0.09628053347194183 0.014817830333433214 -0.0009597400991715922 -0.031691624340157765 0.12151295484379881 -0.13126306374611285 0.03234135439009793 -0.07334779747557302 0.12299738874287303 -0.024329589721099564 -0.05307179668496089 0.0817302001426886 -0.11872939759719435 -0.06561444232574902 -0.04551299477247276 -0.030670663129704488 -0.04556439033268053 -0.03652895501560355 -0.016988230843671796 0.09162086026673825 0.0043262588842046005 0.006973982592188488 0.10829907104601094 0.013294426984456624 -0.031102618898263303 -0.03091174463788027 0.08610283514475038 -0.04810169748883213 -0.01253070871722408 0.04573538352280616 -0.015529966897365082 -0.060850915308270956 0.07479810414091208 0.04816848763679554 -0.04599530939052695 0.01108547884447706 -0.13013466482257202 0.03118428609651608 -0.11674392742214561 -0.15041981265593177 0.12321684430858862 0.0076400962544484466 -0.013804441370350199 0.10092767804108983 -0.004459390935670143 0.16598118262855682 -0.005002479697224652 0.010064536169932478 -0.027294237771257016 0.10402110202309789 0.0710173954741458 0.011285407135142653 -0.022441395673843324 0.09720913549064727 0.11059404660965184 -0.04150585307450646 0.06567905240994949 0.10986126535100715 0.02040854060450009 0.09636637123717529 -0.023552537495213965 0.06331784822294884 -0.0009610745557331634 -0.12287422394332716 -0.00551916964633773 -0.06886396195854716 0.03053646857597939 0.04706516389334537 -0.02806336637345722 0.020602545325218425 -0.13266294278984123 -0.08896584270081515 0.006024249242545943 -0.06010099966027452 0.04432123572065953 0.059181802249712916 
0.009810707858658526 -0.11113684015443763 -0.007972655947267364 0.04847998616250476 0.04231889507318135 -0.00021391080849440043 0.111572306254631 -0.032142255225350386 -0.0557492625641135 -0.13378100601987872 -0.10780170682772791 -0.06157767397921391 0.08846714284740684 0.016329172111881302 -0.05388254360459981 -0.08747369514098266 -0.0797893927619246 0.09628407012209364 0.11113219810789342 -0.03424921617896581 -0.0885785604268487 -0.0017848721920341356 -0.028282682794157063 0.005677716709593368 0.06119174850982968 0.020440142756253082 0.06699396461956958 0.06921749201214594 0.030021732211805707 0.02139020062390181 -0.13372986488307548 0.05306663080838092 0.06667386883425154 0.09089882330596684 -0.001567941503507479 0.05354742478162816 -0.06379495153569018 -0.06739832499875577 0.019221341181574647 0.004000526825863988 -0.07986427202261678 -0.027144698815617187 -0.07547930128298465 -0.08274054712909483 -0.012668189367066214 -0.043264554103105334 -0.03675211140562594 -0.07698743461608745 -0.02976384960139314 -0.12010728649627875 0.024610999805070328 0.06672754754050184 0.1272642787393957 -0.011478765014421594 0.05114232138078389 -0.048150594827885924 0.10697557776386481 -0.0603639193194493 -0.018355997524302402 0.03440083866246283 -0.13236675602538103 0.07570272990892499 -0.05347541686638851 0.005733742869641389 0.01433210366455922 0.045983634162388334 -0.11320700237635711 0.030560200777730216 -0.15270068269884596 -0.058672506229852775 -0.11159504272380083 -0.08083290700505578 -0.02497422274764448 -0.10468630862315284 -0.00553761314605401 0.01969430093704771 -0.006020340809412382 -0.04701153426039256 -0.04332932576761169 0.015306998445956885 0.04313938869713702 -0.05351700603737333 -0.048812121037602504 0.019923499927806013 -0.07615016659495248 -0.044550268578820974 0.06229705849871676 -0.07526671464964102 0.07761314000837102 -0.044276602863134264 -0.0744633440191384 -0.04873967468144744 -0.07190584705066799 -0.14957040579509676 0.021642379621433776 -0.09304451084955083 0.004588869232762143 0.0528132840806807 0.054026010513982675 -0.03079593769091439 
-0.005748012770091492 0.09799663467742686 0.008371780485968105 -0.05204788918142336 0.07750039300279225 0.07940086310256447 -0.013738600209516692 0.08208140977280524 -0.06084387772273479 0.004122843747855811 -0.17143139770575017 0.11184745433628207 0.04457604727787862 0.08984430586492402 0.02081999188342242 0.0041602811931446835 -0.05443332136947766 -0.015082927125251777 -0.014151026045762495 0.014310300547833025 0.015559565549201055 -0.01726229300754057 0.12442010227276108 0.051873064946701575 -0.07305738903252204 -0.004022970965149259 -0.05892309631066472 -0.0923387390916132 0.020788841232157552 0.008026875573977929 -0.046005582519153064 0.0016978573793692887 -0.0029811213587173065 0.025911657224148402 -0.06208400954305288 0.014094896145060406 -0.1365373894374495 0.028334550541069575 0.00813516551279711 0.13955760392516128 -0.028621675826455112 -0.04369911170153758 0.0015903461746214517 -0.04039449490648545 -0.06046521229390799 -0.011749884213185619 -0.07455303323320443 0.1216962749042315 0.07113973752369869 -0.01351299036419731 0.06072520112988072 -0.01208243840810323 0.053041776066235585 0.050297318642102636 0.11394966379862026 -0.07908981427907967 0.11634460916143116 0.04797602646388939 0.012768038060588318 -0.17031137887185283 -0.08835368359744782 0.05503099071398104 -0.028337875510852283 -0.09073168435491569 0.0008427270188987893 0.04743447873541073 0.0746271965553028 0.08703855901583954 -0.08045212237790261 -0.011180058829550263 0.07108335190239773 0.014340487271830873 -0.035021732187305 -0.047079306309881795 0.08287010751568813 0.038856288141521436 0.0043204997947531515 -0.045725932749008984 -0.0811559085361427 -0.06518574940814173 -0.059191170168258915 -0.10241111153660724 -0.09924791785987386 0.013557849400394305 -0.09136909100497562 -0.07728727723761424 -0.00202724589764509 -0.020871283857849584 -0.006245397996580294 -0.025782374347750492 0.013767595006687186 0.0798320740181679 -0.14764167149465424 0.0322897089626727 -0.07706938614581718 -0.07718301786996312 0.002483345587270909 -0.04325485104836307 0.1830862789105763 0.10695200753812364 
0.06929449729414129 0.07451232503022436 -0.05499995150061251 0.12665281296826736 -0.0035255811016416568 0.028451679435238637 -0.019329956124662376 -0.027214062499728395 0.08297832371123018 -0.10379766845450045 -0.1058044354261838 0.2172822058418528 0.003547259620835918 -0.08930340827055593 -0.06365794193709644 0.02001024969919268 -0.07060722755551727 0.08053537436991348 -0.08506998248807228 -0.010474036110288739 0.10024782929660882 0.05122192093458443 0.01635669638989977 -0.07492841535425569 0.015835304343767655 0.09841688686110785 -0.04217131754913155 0.00442211891662483 -0.019183883829653726 -0.17179035008676094 0.0840474310369131 -0.09553766907401831 -0.1461034935557775 -0.07365329765810451 0.005836483456606906 0.0074715714746371635 0.28296587793044464 0.013669710244510533 0.1006635307954338 -0.03219167212426266 -0.06956391251494107 -0.22774157096599246 0.10645269373689258 -0.03046017521347083 0.07268735991059795 0.048160388567305625 0.043597614720757696 -0.08416302721420606 0.10590312012857346 -0.08725405089557982 -0.17042968155942373 0.0024341588926594555 -0.0056126174859988925 -0.0076631767495987345 -0.05266717593806123 0.05834711148380073 -0.11779880205147611 0.09290509805186871 0.02239586696748499 -0.16959224517980176 0.026091686804361056 -0.14839528585735562 0.023802257862047805 -0.18760786819412356 0.042379038062533715 -0.016655288400846572 -0.07870334857969884 0.06078510188553686 -0.015856270775232165 0.08189680011058155 0.012975274797301612 0.13664605426591842 0.03720072742833844 0.017463551818231796 0.0810219937187123 0.020202342669755048 -0.005363742211021376 0.0389486294933663 -0.0873532280745931 -0.10869095147730079 -0.01779422505965567 0.022270941849200466 -0.03869559306701219 0.02866468417064187 -0.10286477885360575 0.03870490444756726 -0.1372123935256573 0.14346245580794126 -0.080639092273081 -0.09954308132646214 -0.07950441777590042 0.08199741361007322 -0.01382913205837022 0.03179096430561808 -0.09142731769122053 -0.009017739197480841 0.055417225276060925 0.014763469759578894 -0.19482172445738163 0.12189373659157107 
0.09714043303009509 0.012475672044968843 0.0395700938207764 0.0015428676891810914 0.03313550646178548 -0.08346665393335051 -0.03226173406421079 -0.044850373013698146 0.0429819837963776 0.06296003470074844 0.0838431186034869 -0.06657238536355221 -0.05197356523442986 -0.09009999873473917 -0.008346014864258407 0.08666259971021119 0.003859491090521532 -0.08439345120865087 0.018453026437187426 0.09450619197893864 0.10189233037402566 0.04846589622875016 0.026646631906825 -0.029547199965683817 0.07654906381271985 -0.04907442190798153 0.04228133385485141 -0.060551713663530744 -0.07435583171535912 0.05450972806197398 -0.05449375889537235 -0.018702002935812867 -0.03920789141194329 -0.046168797636614065 -0.04105554546086529 -0.02787829654653409 0.04618601542434841 0.011942502592976507 0.08776828794236455 0.07338433251809705 -0.061318241631176 -0.03626121076783227 0.007247099085962955 -0.041245411433293654 0.015107958444629739 0.08696865784078235 -0.06291105295256687 0.056079102300615684 0.06209371869468493 -0.06531741051084777 0.07822620489435685 -0.0729005033127485 0.08375811320605953 -0.0369846127360124 -0.03750219804207213 0.09393021940383108 -0.08176517604366391 -0.04725012002015448 -0.05862174430549498 0.04405655432622373 -0.06798105495036781 -0.08769591089473798 -0.08616564727765627 -0.0034180235133388593 -0.022335334373438757 0.08931240519981458 0.013363616545258932 0.015558979990043489 -0.04770303653443404 0.04708001114833403 -0.09161851149012924 -0.06109944713021054 0.10582062846289987 -0.04072298737663302 -0.012512713328759561 -0.02683102410826083 -0.05430484179844778 0.016115104249215015 -0.06500214579645781 0.019621519043631828 -0.03292043381823145 -0.003996649204630027 -0.033477248572230695 -0.09023202640953804 -0.09145059772884129 -0.0869764442051341 -0.01785224044483418 -0.006145842907561825 0.10845933561510707 -0.033731307966175204 -0.07434189617614849 0.08190155082418445 -0.013942649680546723 0.0664458318514384 -0.052700142967726266 -0.07317643288063536 -0.014859425699841779 0.07713851744781487 -0.03421939008799524 0.008940585904702975 
0.0717921337000273 -0.08272330280505162 0.04377527941618665 -0.09034713289762672 -0.0221126786025654 -0.02492113116057687 0.09408425479396192 -0.020573791825579883 -0.04024957524787224 0.06283307460036779 -0.0013295199596389425 -0.05254636757535182 0.011401900839751235 0.016203564857541153 0.07833406944421754 -0.05867911623623894 0.07061755511725779 0.0023650346727515695 -0.07929229261463287 -0.022217971632575544 -0.09607000253607581 0.0417508401201471 -0.05563504053495325 -0.030978262645102284 0.06243029944803539 0.09575742077484936 -0.02628949021514992 -0.054859767067340505 -0.05404151237315844 -0.051768114903920845 0.044943823606638726 -0.04357207828995564 -0.004876417137526469 0.05543514140685382 0.07133642312360906 0.07197194884980701 0.012561617092093446 0.037074146066083495 -0.03705028745774685 0.010334860835075205 0.049250629630630954 0.01594113208870565 -0.0026447202208193924 0.09995899473015918 -0.048850266954342726 0.1175340414157171 0.09117025090417971 -0.01319336042974655 0.06153522818108711 0.028643616187820915 0.03560467810305911 -0.11894067628073074 0.04112233558401577 -0.05753680906138969 0.07592970037020606 -0.08676577378845332 0.058711748087004315 -0.034497837921587705 0.058718188316002756 0.0723474103359129 -0.10971200099991514 -0.029855945404332635 0.0643595074041417 0.1116871023492577 -0.05979286047108363 0.01096351853161692 0.0018747623110413176 -0.043805940104647514 0.06481871308447619 0.03934266480741261 -0.10344205917110763 -0.02059725922374127 -0.013874312968608096 0.11291990649676224 0.07706584041304101 -0.044332627454869496 0.05420465791021517 0.017306071371180093 0.007678806323710123 0.03902638667404926 0.006140715045139411 -0.08540116597817221 0.0594389394211205 0.04992499096805689 0.0913074094232216 0.02308710548223643 -0.06379906785113428 0.0536281472660796 -0.02414655946648652 -0.06369483209827013 -0.047181165887769175 -0.017804215713095074 0.000506577890689171 0.024122939325109272 -0.05448892372939553 -0.09248269512547724 0.06507289533317033 -0.07178547778220591 -0.04477754759051117 -0.09136631691455917 
0.11573214492827837 0.14587511335951522 0.029716658000776195 -0.025003746707740537 0.03344011745219655 -0.04379443760306315 -0.010669965911868286 -0.0760396502981523 0.06825441441192524 0.09270276411807571 0.08168225865679316 -0.04571174314900618 -0.03636521962993729 0.01859171615593941 -0.011890695848586232 -0.061982251735719716 -0.04498555498857599 0.0017778600462274986 0.06696907267916467 0.07188810283621842 0.02990954607015855 -0.018299119453009556 -0.04716974780943938 -0.06789066114501728 -0.0708471621700469 0.005404804591530036 -0.05800730001010376 0.008948411275685079 -0.03871766527708588 -0.036544083911648956 -0.02227621247769035 0.009197546692973504 0.10767190755566071 -0.07010483869946284 -0.032653112846461496 0.08988284725771198 -0.021152303783169343 0.07908735790168761 -0.002822188308529954 -0.06800466590520451 -0.03909592561837069 0.08269491364251401 0.07430511276893798 0.02057147246894272 0.010980971275018174 0.06928347427295083 -0.03943310980403494 0.022365938462189688 -0.014651212382346556 0.06262961094743932 -0.010543995689836726 0.003740287352716372 -0.07108471993953294 -0.03281389830532537 -0.10098194089278396 -0.0846295857791678 0.023783447332522353 -0.020854503850747875 0.050143476216451516 -0.001471941475377182 0.0448832049148495 -0.001586778338764122 0.06631498265795938 -0.022008320951696463 0.055410890111441305 0.06210925193638269 0.10045787841975284 -0.04957372762277907 0.048298448927966926 -0.08157759574605693 -0.018077547171587497 0.0014849289113346513 -0.09643054025526095 -0.06403250000407792 -0.07145658467078427 -0.051087423307045 0.022742563665045543 -0.05212649644151757 -0.016363879566946574 0.0870602368222631 -0.025172374520765525 0.044036500784087135 -0.006387546419830911 -0.08057452445720324 0.08841274959387053 -0.07176267376845466 -0.027289728582917557 0.07526090192639606 -0.06612228206126874 0.06772334538983671 0.02511758377449986 -0.09838148347030717 -0.05314219278766079 0.08618728121686892 -0.01777069370984801 0.031133961202114264 -0.10306632200057615 -0.01717710361627609 -0.03439627358834145 -0.008055913260513763 
-0.06437156561003754 -0.08071783429558017 0.08561817308568534 0.08053133446035529 0.04341442181083606 0.04975382048984248 -0.05783041705986376 -0.015711306294163833 -0.046802620711046565 -0.07159841975776979 -0.015117275860742269 -0.029807567674986938 -0.0015297130191510803 0.028743596412689004 -0.008390043418698522 -0.05546334186851829 -0.07793570978988168 -0.10498357080201942 0.0813349084406977 -0.08785828825447337 0.024541401343686764 -0.06150569945099937 -0.048352683705167834 0.03639131825923176 0.01795038474535643 -0.12639446519720002 0.039151994104619794 -0.03923203762064608 -0.020891217798700203 0.03884624900518411 0.022686682386009707 0.050181811585770106 0.08525421894825462 0.03823975327523876 0.09004155659785308 -0.058278326609336795 0.048919015755778276 -0.07563892250954073 -0.06214157140425089 -0.0701623302746772 -0.04811257105005646 0.08186459267632822 -0.10957562574135338 0.07604867617626063 -0.016090827771377908 -0.016446988262204018 0.04903632207125184 0.05875969350530787 0.007076482761216795 -0.10132534010476264 0.10858019082324781 0.04246573409684037 0.0656611032218967 -0.06110590966427696 -0.07629439090449766 -0.04547109386783977 0.009942419817630343 0.049798414092085797 0.08624102724684235 0.025316840564179672 0.04881608920008935 -0.04888052194601726 -0.01707693339709548 -0.052222575994550345 0.04493267140312685 -0.03882124124450962 -0.0405822537936733 0.042665100184055324 -0.014921055161502307 -0.05736019097638952 -0.0500886600987609 0.033703382093067655 -0.00972762462418054 0.12666486742790053 -0.08161054072707587 -0.0732824512392354 0.06277231657622673 0.0008890060840863374 0.07053453187941257 0.08543170978818751 0.018052944651594537 -0.03841002657961973 -0.03789636833111594 -0.03423714443672294 -0.06381535251112773 0.03364649583744337 -0.05122324816921777 0.05038401006638739 -0.005285198298209578 0.07032924037260638 0.05777082267807854 0.0049903497348579035 0.08825304021061824 0.04393395536882639 0.044106886543774385 0.00910510722239303 -0.03621554764084813 0.006146604080202655 -0.05928114626345888 -0.037364806981736824 
0.004147550721647126 0.04174749558595564 -0.004814691730430457 -0.027701364776205353 -0.04701977187773457 -0.05021024689386424 -0.01772962532166811 -0.018597422878790838 -0.11751996160693726 -0.062354555393734246 -0.02463465777713815 -0.04727040158195324 -0.03369014551651307 0.07786303395912643 0.035952323229874225 -0.04858554471020703 -0.05428058909732825 0.01418537592736978 -0.012196551880731587 -0.10716205788202124 -0.07259375995239549 0.08714247238252724 0.09209992170706427 0.013552683710606302 -0.06636778973996214 0.017003475556180953 -0.0642354935175402 -0.0706461080963087 -0.04374364084001258 -0.048063294071390136 0.05574215625313898 -0.09152590668772705 0.056577808437057904 -0.06654500815111215 -0.09562432660846007 -0.023657511643972493 -0.06953933023803868 -0.014743271403133702 0.06367603340723323 0.009522074420411204 0.028410421139045787 -0.11186432212974293 0.024756859798037847 0.0009655419399888723 0.07232419207905165 -0.07171204470239925 -0.008896867976533645 0.031083052311417475 -0.10857539634068573 0.026500677682925283 0.08401404126919318 -0.010593168123273645 -0.012868273332097438 0.045517381093492376 0.06432531136906786 -0.020893141863855914 0.08173267014446849 -0.06460479975497033 -0.03364160352023102 0.0149268654946046 -0.0361419841152377 0.0016109171792761867 0.001150372279840182 -0.02046642624507917 -0.030581181530458187 -0.057997827455444705 -0.0037674345825894806 -0.08377684971367427 0.05154325996188545 0.07630895072383928 -0.052580147839816356 0.005410612927527026 0.033883037622345104 -0.04175161395799029 -0.08049331776703832 0.050189974146790516 -0.07611790511859036 0.04657948235738382 -0.10551606532958434 0.0014158096316396658 -0.042018561760246965 -0.0087442702949115 0.0625977507704121 0.0840072201587229 -0.0029851742439675898 0.037177115716738006 0.07655313148269548 0.019023637273693945 -0.06525447920337973 -0.03493999645722971 0.044797333964005114 0.011467828735264005 -0.05889408639810708 0.053771059060710676 -0.008669517227383758 -0.06100881516714409 -0.08716550656200121 0.01857727593639797 0.09725038286637544 0.10674185892139196 
-0.02154852432463396 -0.07249380321893673 -0.0271701463900868 0.013035130220093916 -0.0815113652652411 -0.0035710071222487907 -0.02922462221020175 0.10828697476000605 -0.041902145444491216 0.033568565931568435 -0.07995869112668816 0.045363293891393666 0.011124819832870371 0.0016607360456560158 0.07089977934910706 -0.025563102549449518 0.01350768853987559 0.09239265263888223 -0.028074448489084386 0.010836492355039294 0.08717769293661223 0.011978615413468556 0.027874341381375713 -0.002413759384243131 0.05631669172933373 0.05463411739889332 -0.04886829753800792 0.03258827822795508 0.051386403279293315 0.044754681858527844 -0.003108880008937544 -0.04760335872291276 -0.07118069430559613 0.0375528199908147 0.02846002151167358 -0.06651164605621487 0.056052034820417894 -0.06539505077726013 0.06474728104316949 -0.0569132466542001 0.016182536765696934 -0.017990429660403023 -0.070871394607129 -0.0019300895407476089 0.036825640676506316 0.06409663433796771 -0.012990831227770961 0.02220706157090574 0.0014410269494129454 0.08820367437298253 -0.0113735390532807 0.043739640542632574 0.03800950978886549 -0.0609232009761809 0.03314741152993157 0.06050727746432217 -0.011536879365535895 0.08012821228615025 0.009735571085344601 0.044954388359876245 0.06653338307802967 -0.023905193236982675 -0.03226372362643566 -0.03771821118186627 -0.005737695629082692 -0.07348754438863231 -0.07325168827474234 -0.023269331303316022 -0.06007573263915207 0.07701353655662561 0.0929438881595837 -0.039355524517509025 0.05982078030240391 -0.039916366050840514 0.057407684529451976 -0.016797180548020166 0.0894566523844401 0.04244984526355243 -0.12221193175360892 -0.10966454526951998 -0.0008692023845111784 0.02653941945670089 -0.024329366672819517 0.0906728526087374 -0.09578676736287241 -0.09082911716421849 -0.02578734993903408 0.04283369612796027 -0.08311790684644332 -0.007413107079299665 -0.10884126931840069 0.004198216321482984 -0.02846230132071504 -0.10968186976345602 -0.01178466279495419 0.016066345466077034 -0.003395686592503794 0.026904037518819993 -0.0022453922941965106 -0.001363302452008139 
-0.011308020583048504 -0.0026365409354748167 -0.034828123706999246 -0.04243509178333468 0.030495421231560228 -0.062454225114352155 0.03491600406688492 -0.013154890037102024 -0.013327775159744074 0.0038533706747845707 -0.003595957236100034 0.0018961222418948512 -0.03140512461236168 0.02407659327317727 0.08615365195288105 0.05445458038752293 0.05067930608851528 -0.03033693315797751 -0.044193279348481565 0.06566317700498471 0.0662879751967104 -0.004508639362961596 -0.038677113769573106 -0.0018382692973089047 0.05601443406282046 0.004981109061855048 0.03151846035071127 -0.04786699076495655 0.0014693817089175966 0.049734652232741386 -0.05108166373931216 0.026238685309241783 -0.015831675518585837 -0.0192736675149371 0.05060825428003299 -0.11028150162198141 -0.002874968215020531 -0.022109340924671476 0.019930155987478233 0.0014540498685599607 -0.07200435877346993 -0.020257318042049614 0.0017086046722229607 0.02791738319073474 0.07547897895648456 0.012092963975230532 0.02434490834116339 -0.021572809043411818 -0.014574548027495615 -0.04975831351346563 0.03446611502896484 -0.0006892186900602316 0.07154117800957237 -0.0019014848794354205 -0.015364708535235024 0.013889435704039488 -0.004669999130488932 0.03160485836138291 -0.017723411378301468 0.0012986991216286125 -0.0210655594459456 -0.02687562422547479 0.03439329384016807 0.005715344758508895 -0.0005612568497456642 -0.00022207105193213872 -0.05864629546680649 -0.007492489396655809 0.008356165777934289 0.1117387759451668 -0.024840780298203233 0.10359179367507146 -0.0032530817281091044 -4.707939901459571e-05 0.10868942600700945 -6.78151989646458e-05 0.012413601348590797 0.05510306955564907 0.0017921481239773546 0.000751795631315506 0.023421285752726218 -0.001279672109107504 0.018567081251509056 0.008896929800212547 -0.029312094827890205 -0.015607019849117758 0.02104921501354777 -0.04735210880732911 0.11614891744125687 -0.048338691581335774 0.04841118405124541 0.004116181125691807 0.00012975280217900935 -0.06183109593458182 -0.10314805826813753 -0.00438599690405113 0.0029536151748268164 0.0812055979278286 0.0029777765140062765 0.01770543542693239 
1.4021030636254364e-14 1.2008311956883155e-15 3.502963398365347e-15 -1.1001983077541476e-15 8.741395522706052e-17 -1.1432332660372626e-17 -8.977400776954283e-17 -1.1537484407550994e-15 -1.0531832341310385e-17 5.320259594762434e-16 3.261787927309936e-17 -1.6873849926700034e-16 -6.0200507151642335e-18 5.81424583609254e-15 -1.1969726285506001e-15 -3.0260589780796785e-16 5.210039262509389e-18 6.49955347824516e-17 -5.308995649838204e-18 -5.186207554360871e-16 1.4764248871507614e-17 3.4271397362626468e-15 -6.954827505187265e-17 -9.912813562918807e-17 -2.272717202363651e-17 -5.87983122228509e-14 -2.1577610660885294e-13 1.0059900646193333e-16 3.227350816503986e-17 2.4582977644872552e-14 -3.1363970529105e-18 -4.447057676825151e-14 5.002756470041111e-17 2.3855135457872376e-15 6.210740127764513e-15 1.024106861965954e-15 1.338904280648726e-14 -1.0486851264782423e-15 2.1556158457976856e-15 2.6137555590724347e-16 -2.0744472969674894e-18 -1.384005766497837e-16 -1.2622798022314456e-15 7.549679293041154e-16 5.632701726467168e-18 -1.6246837747466437e-14 6.033247475801556e-17 3.6587661021718965e-17 -4.947666408465863e-17 8.938530332569286e-16 -1.3926273642745856e-15 -5.848063198903394e-14 2.1048377975311866e-18 1.2086177864774152e-17 -3.079291593614089e-16 -7.493680833179666e-17 3.609095018747837e-15 -1.5514372924864167e-14 -6.891447676446498e-17 -2.947731626578201e-16 6.181837396018464e-14 1.6827549230135775e-17 -1.571376890409771e-16 9.104024293136136e-18 -3.3229719235837744e-16 -6.0878201307723985e-18 8.362341586342307e-17 4.121374092348963e-17 -1.7245417819586218e-14 -1.6835122872446682e-15 -1.231807243878927e-17 5.992662569140688e-17 6.930118036095215e-17 1.3407345672274966e-14 6.544840832493861e-17 -6.029150664444353e-14 2.807484785817651e-16 1.474799823237635e-17 -1.1878560131880075e-17 1.5512936050861105e-17 2.129969747345418e-17 -1.5318121331980617e-17 2.1272335141481397e-16 -2.0656572752057083e-16 -1.6678180738866152e-14 1.745960173625058e-17 -3.88409377824164e-18 -4.9665176570170855e-14 5.376379034856997e-16 1.4610208020833752e-16 -6.94996051775205e-17 9.288072053417362e-18 8.542929401646843e-17 -1.619018786682284e-16 -1.796871307153713e-14 -4.5112675648826613e-17 -2.0325325465956544e-17 4.711481033462778e-16 1.7509809823162786e-15 1.696494182612732e-15 
-0.00858707920472886 -0.0071704956515738685 -0.0031528998759366316 -0.03701814365862695 -0.006363310240283211 0.007426870035668158 -0.005439222934285901 0.0002078420459505565 -0.0045236430934090105 -0.00045469273217854997 1.434046188456511e-05 -0.0001116338488844965 0.00451208844670156 0.0006649939904988384 -0.0527090096062119 0.020816980744881128 -0.004103272218320708 8.10758092578975e-05 -0.00234394323120432 -0.017703688945662068 0.010063842353040987 0.00015517162819595872 -0.005264336320545086 0.00021056371899483663 -0.010249074246070907 -0.00010347279991552775 -0.025815454970729634 -0.013969635988475362 -2.710698855661307e-05 0.0024575613460189705 -0.012255294730368403 0.009756272273388544 0.010489731063539823 -0.0005735352013452248 -0.009838562363204835 0.017032569033496675 -0.0007234658776563304 0.0011724425874291185 -0.06365826918148884 6.2111881504883835e-06 -0.016730164408254828 0.029945014164821544 -0.04971978372946459 -0.00023188907969009913 0.007646394458042124 0.01982610463008745 -0.009613873654707169 -0.006832921347838977 -0.0010706478298617838 2.3787460617016745e-05 0.000411686208864313 -0.00015781198850529481 0.004718748856560129 -0.00025702786688072427 -0.00997080117344925 0.0022641555773218625 0.001349517446591825 0.0003569945916739298 0.04162631401159313 5.66526231202522e-05 -0.04565787462159208 -0.004550951931766881 -0.0006376192223450083 0.0007299060737458419 -5.6021870285306126e-05 5.169439757793274e-05 -0.0023629320395897498 -7.806493234545784e-05 -0.00513738910242368 -0.03982544178365197 0.0007877843398116955 -0.07760577643379739 -0.0009568021481894286 -6.037437102676585e-05 -0.028344811866643272 0.0017678821133328782 -0.003466839046025912 0.0017243653138410426 1.3724995170239222e-06 7.310145647795077e-06 0.029974520584647866 0.008928014541080815 0.0018473658715777066 0.015025822028115235 0.0027289575664382715 0.006593558268324048 0.04690545177783623 -0.007401848068475196 -0.0004975210302190913 0.007821362551338026 0.0002715949854111971 -3.0298152814794642e-05 -1.630583833560159e-06 0.004583138624138489 0.04685295451102066 -0.00014703385109296843 -8.726573711627888e-05 0.03400471677707957 0.0007820476870904944 -0.029778108159891337 
0.033961741381988396 4.806526851668664e-06 0.06621278727180283 0.07827533709771077 0.030881948269118144 0.06812640802246492 1.0415721380383072e-05 0.008273588630118766 -0.02308177956311627 -0.039923419555618116 -6.073379024342278e-05 0.00596568652829693 0.01090358733268306 0.007213559528736822 -0.015896723716379603 0.0007690803066157004 0.002927183963420447 0.017541618901721626 -0.01786808431853594 0.024014096927673666 0.07112825621890173 -0.0009431412892088749 -0.001057672217504239 -3.452409995154297e-05 -0.001967542432811848 -0.00729226411167053 -0.01781320939526001 6.669821591944556e-06 -0.008734594901587713 -2.2717996083670196e-05 0.006307800443078443 -4.528131717027651e-06 -0.021859089317072436 0.0007223412250587104 -5.948061752842632e-05 -0.06583406830109993 0.0040402980320235786 0.00016679620663118125 -0.009360256109947205 0.04678932947823328 0.006481011910196767 1.525259848341285e-06 6.315025707085593e-05 -0.046070914025676944 -0.0030499309549188607 0.00011449889896838168 0.008402947212213095 0.013022796026094366 0.02994693412273401 -0.007523276619955124 -0.00040823918727792826 0.0033008956714178613 0.06547563928374037 0.00010024866928679555 -0.0208791027056076 0.03163794681734414 5.7015884194271384e-05 -0.008251896239186398 -0.00833122989064048 -1.3444425136761877e-05 0.013289456549915543 1.0969506471533221e-06 -0.060842957131232694 5.570598026600387e-05 0.002831166883165715 -0.0013192284055013174 -0.010582956409924111 -0.004123358228065829 -0.03171663044767282 -0.025028272942859062 0.06347990929671134 0.045693369597131515 -0.019797490898429287 -0.01659249430305202 0.039064412206201 0.005808177560091869 -0.0184035377762645 -6.574714102505009e-06 -0.03647659852910337 -0.0025388413728522443 -0.02986694547759381 -0.0018784196457552285 -0.0006350832538258514 -1.4060079828381421e-05 -0.051014580800890386 -0.054226342825013533 -0.0057074813987815 -0.012469026985726746 -0.007201243405440956 0.0043867037458443486 0.0423328186195014 0.0002192469864046486 0.00570466307614888 -0.08019893365804703 -0.009096814543128154 0.0003190427334181258 0.049542876181865037 0.05152811219239552 -0.00018673702837608251 0.02208829613571751 
0.085122682546592 0.0035328137254571268 0.038811637866637376 0.0021169996067425183 -0.025630361189810855 -0.023776412599964835 -0.034619203092574206 0.02504912722091607 0.03610263403548232 -0.0023841200667184515 -0.054922495826814674 0.036893659084809384 0.010412010479961025 -0.08668147462043546 -0.005315038470087289 -0.10099276735929061 -0.01341842566377863 0.06236153453460229 0.02912933602533813 0.03708077131461176 0.022023012460644954 0.009550422125289585 0.0200445575142225 -0.03384344442517246 -0.002742472625908358 0.014208333605207575 -0.041004738756477664 -0.009225951276511024 0.0010601159559665756 0.02549067474727889 -0.02212407199423876 0.040160333483875356 -0.07386361954835104 -0.02384902315457241 -0.022301042208061308 -0.06100577486776916 0.030790637760383405 0.030207062483957405 0.06363568726576806 0.04935394065663897 0.024972824084305036 -0.005927739106545483 0.04252322045825804 0.011785940454737439 -0.001352325441949195 -0.0156454095569238 -0.02085354196080527 -0.03797242792279609 0.056196144799403956 -0.008306226666406421 -0.035227875623323544 -0.007888096909364616 -0.020218711646029206 0.049425841762421624 -0.06473818984403702 0.011593208445022828 -0.005472547599793179 -0.06433509171863626 0.1016401750794952 -0.01120268995536628 0.06916097939110909 0.04837331004167698 -0.004743306757234801 0.021502209492494748 0.012674659476699324 0.008331145285955832 0.021852602877097883 -0.034380842615207685 -0.04099765919021476 -0.034868840882244415 0.04252575227254599 0.046234139117573424 -0.005910987832593044 -0.07867357631486777 0.06788084757471932 0.06012416815298741 0.04338937011496115 -0.001871605699443162 -0.0019139407418812108 -0.08356951344040388 -0.004648879136790239 0.023740326580719853 -0.0637452006839962 0.013300197427472913 0.051149614617714174 -0.06311817459153689 -0.022904713289848885 0.10255006306874474 -0.020215348514798157 -0.02076666929451813 -0.024292922087389552 0.05355728384067243 0.015383048961800426 -0.08588116211906834 -0.01341608677894763 -0.003370050133884824 -0.008515818596532143 0.025712940878902107 -0.01261811141243391 0.06254426032650129 
-0.00911380032404527 0.0059868309407069015 0.06557248656242487 0.06439228295251948 0.04604757276918542 0.061900471005433326 0.007530349478011466 0.013968309967347516 0.03568601148491113 -0.05728131977815496 -0.054609528727691196 0.01926646041316508 -0.06499504535483193 -0.06326422956286752 0.015207489582280116 -0.046761426412319416 -0.03939249235124869 0.045865637643923964 0.01389967547622415 0.05834948322605008 -0.031183354025514868 0.025369819164410567 0.019904743655719953 0.035734348223786294 -0.07296064354760276 0.03803374522738926 -0.054485821164159405 -0.03629224217308081 -0.029804945483197655 -0.06144241821298579 0.02278131177771451 -0.04404300884187439 -0.07416205634456682 0.08790822447180946 0.022158173971880604 0.0011623372588751124 0.016361644016241204 0.02295420288312572 -0.028587258911582977 0.054457706584092165 0.06732666056282549 0.025377626050491806 -0.027378478902499753 0.0021227199930687916 0.007682715260352959 0.03749013391243624 -0.08045089947020764 0.06340379560676158 -0.038819641882183925 -0.042273649827609616 0.03750032502698477 0.03001962351975712 0.0822527356724356 -0.006027806191186071 -0.040582293236594374 0.02351307593941509 0.029870443053901373 -0.062200857067312765 -0.03582560972847345 -0.0780676337355068 0.02408609424976699 -0.051066066251296685 0.061857158029623785 0.004620057038775522 0.004388452216597363 0.014611866292028108 0.058342352971763954 -0.02650583972393912 0.009892676567684621 0.02491412996189609 0.09527525892925442 -0.05985845068126571 0.049189949622664264 0.0031441125849269967 0.028186854093494553 0.05086927895799704 -0.05078305609973903 0.01033285483204368 -0.04160973085208546 0.03087343902892639 0.04251772216296707 0.002465240750373441 -0.007531910494208403 0.0036664901260748234 0.022233515185161378 -0.003938186421350005 -0.055656191742465604 0.07621771490697593 0.005810315402167831 -0.0473842117589715 -0.020039230111726043 0.04675168030546985 -0.05227008292023304 -0.08255873641410073 0.04246759627128907 -0.002242817574677954 0.03246977197563651 -0.01269103811633545 -0.002473048247198351 -0.014913562483951457 
-0.005096710700963422 0.00022040912891359868 -0.012208181928931245 0.07263471997007867 -0.015003870161497002 0.05451587123198319 0.03908033460871953 0.0039971182173800315 0.026372709492802942 -0.010983811769322416 -0.017310212012682687 0.016821909139519187 -0.025624546582034266 0.026302142200174457 0.014989167517579912 -0.048026219003725876 0.003849901617883262 -0.04376312590203175 -0.021611335501191247 0.008543657874459902 -0.012307991088711582 0.00202495824842898 -0.00033963019383304006 0.03484470907505338 0.028420369301067012 -0.0037925467812161737 -0.01786960115155393 -0.041978469403660214 0.009109811943749423 -0.005369433775832263 -0.022881281918098333 -0.03121812004482294 -0.0788217827971877 0.01954024741595492 -0.0144471897626697 0.03384694479070419 0.007159844033310845 0.019394027131949564 -0.0014320201906632122 -5.000929112227472e-06 -0.059935469094107775 0.0066529207266885805 0.012184686873849772 -0.05444133346403065 0.01655863202882133 0.015855091850450517 -0.04052035703172788 0.03319689892353676 -0.0028924247066503444 0.0004331607906247475 -0.03140318008257839 -0.008070960499796128 0.07626593240828801 0.013715639347018029 0.01530782678934935 -0.02671339198007293 -0.0004826495225344128 0.029711696974639493 -0.05870799756292685 -0.0430189676679129 -0.005290680015606735 -0.0037556452182863887 -0.08189607007004733 -0.044069646997955125 6.51785786790132e-05 -0.0008535255354078498 0.0044085522450431685 -0.024913121261602448 0.005369428033912387 -0.021273548458658715 0.041507187216665464 0.010762027163338161 0.011383323580687096 -0.030034783861128768 0.08054404271651994 0.015384652440160747 -0.0007317719061464385 0.04331663988972399 -0.008552785811569067 -0.0250452750874063 -0.03552680451036836 0.02097123588775558 -0.0029025468297997252 -0.0148074250191402 -0.009866055679605905 0.010063902154311154 -0.029184753894710418 0.04159128663651584 -0.015116463209021089 0.0825737481867373 0.05267904357124717 0.03715568662984649 0.04623677784482648 0.024956108700009607 -0.05142364614114361 0.00023526342742309284 0.0009696944145338597 0.013020534980230787 -0.0009292694377722262 -0.05236537250571186 
-0.00807417330670279 0.0009402510829122681 -0.008895086262848101 0.026306222894601453 -0.016886229447676284 -0.0721114540969118 0.05228104208439318 -0.004450391199812371 -0.02511149572283794 0.0047889599945685896 0.05432912769500327 -0.06278701846342705 -0.006651497927634448 0.07717270186574227 0.006861860483965161 0.05117818589787151 0.09408703762941074 0.02559037456369816 -0.01079904250498513 0.00732019210888031 0.029047598447531138 -0.02441178413244408 -0.00477604193399413 0.010993823614090542 -0.025695334299205296 5.684655599049192e-05 -0.02026828549759941 -0.012072717580306615 0.017405353396207614 -0.0307973783387134 -0.011248623452161101 -0.010636532701450744 0.10706085492781195 -0.09120550247068776 -0.0179263452926034 -0.019369066201994516 0.002317970275710881 0.006140436727125522 -0.026763806569588964 0.03938673196200122 0.023216384590001832 -0.012018530085088814 0.0062673485569208496 0.026320580250103424 0.0031205716008690914 -0.08179690687389915 0.0923953258970239 -0.037560485208648194 -0.01960357053773221 0.000359199297843626 0.04539036618172103 -0.0023554342143020292 0.009798462670588207 0.050188491711901956 -0.0316090679829177 -0.020136056695011628 -0.0033979609162884546 0.020565779637498165 0.020244402508123503 0.025770359033153993 0.08385424552460166 0.04677149438077808 0.035963142132056466 0.03455293896932818 0.001588392169018009 -0.004171736609956686 0.0045705880501114215 0.0008095902816514921 0.06429716620696542 0.06717601312683119 -0.06228546021273272 0.09182086651378198 0.0023832508696388713 0.02889212426079824 -0.09312120976902943 -0.017042862180516975 0.04324318565775724 -0.010972400152980517 0.0037238135386892107 0.044674334863281526 0.034864662642030815 0.017730246649441644 -0.03807807335703229 0.038946786547388056 0.010089363236960254 0.021842988762635403 -0.03202506941503722 -0.028079008175953376 -0.014521543274629229 -0.024584590041666934 -0.011193666529611457 -0.0012672373664226759 -0.021842006902350428 0.051156941791827754 -0.014302032066534595 -0.016064922749367282 -0.08076327481490336 0.031132597185097484 -0.002046277609383347 -0.03951589738711666 
-0.04138772373164427 0.014496980185350554 -0.005056611020121275 0.03295932847472718 -0.006241633555927167 0.09315521640923641 -0.017013729502589166 0.00767999579711514 -0.04221818306013469 -0.0021725217287957123 0.02317919711081873 0.07640542586335249 -0.07967613797890467 -0.028286542775083055 -0.005159549684621359 0.037603253307092396 -0.07253662238007022 0.02711278801080502 -0.04395947129247057 -0.01658439742935407 -0.042488016185626504 0.033122902303308416 0.019562151960033525 0.023658663083123515 -0.11636464743381404 -0.00015433726844149627 -0.06104651233036541 0.0539589057450669 -0.00459049313091118 -0.0447620487733914 0.030238210649674954 0.046599206730486266 -0.05672496705173564 -0.015576817920187527 -0.043220199478260224 0.040556028795807206 0.002012643876689583 0.0380392269181293 0.04350463907365805 0.05799540989477646 0.04899920685250526 0.10731356952975413 0.09982072514061913 -0.02369892614781689 0.023058139921052254 -0.04164576700324325 -0.004541303504920773 0.05631860610125014 0.0750895133941109 0.026303360407171836 0.0639981174131898 -0.002018545443697284 -0.011840817629121965 0.08138843099573147 0.0005207052643860286 0.0381620933776582 -0.0008469974808876931 -0.027827499598143682 0.10672509627601232 -0.009804140183957819 -0.00604058110264577 0.06161427509117311 0.08060272589492203 -0.005577253011247708 -0.0044606054240517 0.00034659836717256556 -0.008469333435510656 0.041037307677733 -0.001537974332306204 0.012211958841089854 0.03252731031063243 -0.0496190499354023 -0.04160726744209765 -0.03050346429852158 0.05229780798870252 0.016995118126472274 0.02756064328064073 0.006249821386894799 0.001174838944896742 -0.029278262380372504 -0.01795609691889814 0.04023861519297907 0.030662426190097274 -0.0024211599344262347 -0.01645650663806606 -0.07551641619974107 0.04433587794964026 0.011763618957000135 -0.07267443858958056 0.03474264167920222 0.03321068829077344 -0.016991718080060118 -0.009895205761065088 0.011432371207848695 -0.010766402865017451 0.017941508434439823 -0.035391832567465586 -0.0170296484245162 -0.0026268741717908593 0.051612053427504724 
0.0003372370586610454 0.00012832314352392483 -0.0387412999852874 -0.0028695765806608406 0.014923846853439384 0.0007511618326652641 0.02356910945867358 -4.038510708551366e-05 -0.009684030558847829 -9.02294645543233e-05 0.0005477341902642564 4.399101624854258e-06 -0.02853407230235306 -0.01470522400530158 -0.002417863229464427 0.02318623488846038 -0.024757088056363664 4.01871849071879e-06 0.007304128047363454 0.0004312372006028622 -0.022762745071309987 8.084455542904502e-05 -0.005633199716611657 0.015235693535335694 0.0032607047217678743 3.446292592733157e-05 0.0013277090916866184 0.021542448620650564 -0.0002779286379011614 3.5634314677707275e-06 -0.045563034307725056 0.01938259401078437 -0.003035623455642232 0.00016359294704057983 -0.01873839699508952 0.0016241923519400977 1.8373373358745316e-05 0.01376579164843695 0.004537784733472536 0.0001277073512972171 0.02407728892915602 -0.0684875714624907 -0.008892949459626898 -0.0020312929501045004 -0.016497744853814125 0.01175647244051061 -0.023702155943303983 -0.019737388053591744 0.012314159247218926 -7.02736913628699e-05 -0.00022514191822384168 -6.596607532413007e-06 -0.024834068664592944 -0.00015769192083330263 0.0030551703739148013 0.026912504518966065 -6.569318143479222e-05 0.0467596158585494 -0.07349748186950657 7.427598111346618e-07 -0.0005201725472397354 -0.004564317505571583 -0.036465700790156534 0.026002092129954666 -3.890793194575333e-06 8.289775400164068e-06 -0.0022461435838324307 0.0003861841378891961 -7.247406802152327e-05 0.07872945274122821 0.06430138265611483 0.0055040532797620365 -0.002355049084497346 -6.8599075769410076e-06 0.06139836201152065 1.8454310826381726e-05 0.02652747704928987 0.00013875325094050495 -1.0169222487890533e-05 -2.56913209628929e-06 -0.014334087766898556 -0.002343300558542526 0.002511923794910944 0.011834606415104608 -0.011987242743347275 -0.02353981063857888 -0.02688639789043472 -0.0004973570995457289 0.018935125843433365 0.032883612414399147 0.0011592955191605044 -0.0053198132112237135 -1.834966157522475e-06 -0.005489827292506762 -0.018604303861416285 0.0033209104014806368 5.289101299617021e-06 0.00011485908291381032 1.1238733014359958e-08 0.004124221940120343 
-3.394077071135426e-17 1.7743340023654385e-17 -4.905070500614874e-16 -3.0424434618647623e-16 -2.230023824557042e-13 2.2525061527845192e-16 5.460839242461836e-14 5.3267565135222554e-14 1.3621359423819458e-16 -2.0521764247224348e-16 -2.5340389194751477e-17 6.836706663868806e-17 -1.91680598913846e-15 2.0062921829723512e-16 1.113625015565112e-15 -1.912448165315786e-14 -1.464301576931669e-14 -1.0293076363402159e-15 -4.9042503709102545e-17 1.512083120150383e-17 -2.902515354929774e-17 1.5201166702797783e-17 4.5100138172720706e-17 -1.0083906682143347e-17 -3.9938715414364856e-17 5.3983879621346046e-17 -6.7953148258423074e-18 5.606150866100275e-15 6.182828501432613e-14 -5.615803193618202e-15 -1.1227952301495677e-15 3.4711639769283057e-15 5.746148902560807e-17 5.920003538751585e-18 4.183529748174272e-18 -3.6702885418009173e-16 -6.3907269273555365e-15 -2.406950241848198e-13 -9.745176376741019e-17 2.251995494933531e-16 -2.034638057919208e-17 -4.6317561226801846e-17 6.436241140263134e-17 -1.659147851107409e-17 3.0224081586128525e-16 5.809395460430256e-17 -3.510935661087637e-15 -3.1176008405067986e-17 7.465358781274782e-16 -6.232273777560898e-18 1.446437577240973e-17 -1.2484800572046202e-17 7.647829346662612e-15 8.944180173399049e-14 -3.635295397855082e-15 -1.949893805708005e-17 5.1971564154321436e-17 -1.1484305318565026e-15 -3.0107728735523774e-17 1.7177559514511623e-14 2.773090875275339e-17 -7.932453435076665e-15 7.224150613525668e-17 -3.064613582216367e-17 -2.3074768614702497e-13 7.12153510401961e-18 -3.470925272832784e-17 -1.8832346356947965e-16 3.7108239145153096e-17 1.4547613681190933e-16 -4.188289225982415e-17 3.5287397933125525e-17 7.691493283688933e-16 -1.6257578032476197e-13 -8.666067302759498e-18 2.5207696690500555e-14 -5.145860574816543e-16 9.803120816957748e-16 6.558752047962954e-18 7.568668568272784e-14 3.9956549041226766e-16 -1.399913775191978e-13 7.186304848325901e-18 -1.7056140843898884e-14 -2.1564290518383453e-15 5.711876229972549e-14 6.155127794791993e-14 8.940930760555058e-17 9.580036384946868e-18 -2.2626702348803597e-17 1.570120930687479e-14 -2.8340002789147635e-17 2.57180016984711e-16 -6.470544078835245e-17 -1.9431175901456273e-17 -1.9101375231560814e-15 -2.0254430168989136e-14 1.966401037956716e-17 -1.5815413786232466e-16 -9.219213019201665e-16 
0.08791875237776633 0.010509797505641502 0.07819449141143829 0.08605534387183086 0.008728313911737031 0.1041060666502352 -0.048912950802321324 0.028347853386042336 0.0672673402972119 -0.003123793380857713 -0.019561205953476178 0.06359958318209843 0.031188659875369524 -0.03682334974596708 -0.06051452534084403 -0.08747595210565329 -0.0001535245347369851 -0.029073526402919787 0.06276555004501462 0.003936717574108994 -0.003022759568795697 -0.005256375257637301 0.019983655803893715 -0.043050328769909406 -0.06808923958775756 0.006752693255062761 -0.04396597636690184 0.0008073730245115466 0.02789581378107292 -0.011888066967404166 -0.0464852977532987 -0.03981541166099261 -0.06825042718002808 -0.009116673587689625 0.05960994309278834 0.03882479689544305 0.015970027442548843 0.0006603262413643698 0.009929759947499063 0.028387258607313677 0.003738281348949031 0.030166283644935128 -0.0017385928683414534 -0.03417804731848132 0.011030937426409941 -0.004701105861666508 0.03188409925978769 -0.013344005777009506 -0.013885991877097015 -0.02839418293648453 -0.022971602572627734 0.02101731266624742 -0.03542709219736846 0.053969845428057626 -0.05462358451821667 0.009264231898656555 0.0063928938096347344 -0.047256924514361615 -0.038225594910314166 -0.07849117659766923 -0.027046959806363614 -0.06385262791385375 0.037413710674798324 -0.03972085436111273 0.01883219022815346 0.017255374132568276 -0.02937292941230432 0.002051299005179646 -0.01850721973018736 -0.019070657062160733 0.019983730076855884 -0.0313673240437661 -0.02865689498169853 0.037456598897955946 0.023273577145194676 0.06391726924268332 -0.04071468709232699 0.015291178981942617 0.016773952493874887 -0.01004523348628248 0.03307795162077621 -0.010519820048552281 -0.03998275252478712 0.039260932456649904 0.029187476465204264 -0.054731888436622515 -0.004401510806496957 -0.013682452093506778 -0.0020741883306432123 0.009684950147984277 -0.06190728646687159 0.007248017121034109 -0.027084057721138834 0.047038752758929055 0.034378337504292845 0.0067864268150802315 0.016151202810593727 -0.00870140670880046 -0.004505062411332974 0.002996584992446495 
-0.00011308228333738296 1.19843788123287e-06 0.04340463471269391 -0.02347789994695456 0.021878512427388877 0.006054015157998953 -5.538397504830104e-07 0.00033990483768603363 -0.0016073977326259896 -0.04594359527209281 4.5567531428697985e-07 0.00023000504076516818 0.012999210370007458 -0.006490059558752905 -0.008804358096620075 -0.027907049020798803 0.012351822315763303 -0.0008314602219729436 0.02318548725998307 0.012642138283603763 0.020258391499270893 0.006541985509236556 0.0027601775187407478 -2.5759975206455495e-07 0.00047732345895275946 0.006567932223295335 0.024185362744179602 -5.8454897068303784e-08 -0.010380394831272458 -8.615985523739564e-08 -0.007076863369551834 -2.7353038625698552e-08 -0.024414942037684833 -1.7392483936555337e-06 0.0009249512180132517 0.02654667746465695 -0.03570334853405943 0.010729100218211395 -0.02317605707640885 -0.00564262161773814 0.00279266540447064 4.02369139811857e-08 2.1995543788044174e-07 -0.0038202761843859887 -0.0001431803876095594 -7.583740447851286e-07 0.0376070896518552 0.036420607247421334 -8.899487504185295e-05 0.01322730662068114 -0.009695486041616715 -0.00045546241521073934 0.04711931439990976 6.418739325682401e-07 0.008311952672257511 -0.004244840812103565 0.00688148225710709 -0.00436085759850047 0.0013320840713977825 -3.1988761160086503e-08 -0.02238214979481288 5.969954525793329e-08 0.0359975894001705 3.819387877545099e-06 -0.0004628727489209791 0.028713948242163785 0.0005224627272120337 -0.013894590040312547 0.03182542574160689 -0.004180904013006833 -0.007284717955368108 0.0010595380891216045 0.02724672390808135 4.527793599317886e-07 -0.012754141337543564 -0.004562263226164373 -0.007249836987153265 1.3631491037417491e-05 0.009729926287576046 6.98929585068708e-05 -0.0010737690220534468 -7.36976885001018e-07 -0.010469528243933284 0.0012942971227088206 -0.0025264182748876178 0.00537017842569419 -0.0013334094667093246 0.030429636483706314 -0.004986535011355289 0.0004770483281539919 -0.006014248703712764 2.421579368723738e-07 2.7979221069191105e-05 -0.03752790074102665 3.68804353558639e-05 0.0028774204271657102 -0.0016859530252686982 0.006858000215316584 -1.0377914544666388e-05 0.0111707882968587 
-0.002874480774334897 6.753490059570499e-06 0.04909131231299484 -0.02732864537965393 0.029471347930487606 0.011577539002769466 -0.00020000233982763325 0.00018539541941733006 -3.978787598624107e-05 -0.017777995333136055 -0.0003105625321428773 0.009913369824078436 -0.04143538337562051 -0.03845712039818346 0.003229967966701002 -0.03779450578258103 0.03353734232638065 0.006671845251486904 0.0015657989959588104 0.05152469015255533 0.022453348216580325 0.0016864530400308717 4.154970483916524e-05 -0.00010079815548178312 -0.04966949427398641 -0.003646394353603597 -0.041606173479830214 -1.0458938876390162e-05 -0.006065833990392225 0.005910983588306778 0.03966424439477963 0.0001816787042006167 -0.03905075565215843 -0.0013002848483529166 0.007105378556739093 0.04950877190032207 0.004409103095039045 -0.01498895769706206 0.07647429689718219 -0.06082344815664143 0.02432253829708538 4.169451702751623e-05 0.0002941965370228256 0.025109752873445502 0.0009568323663136797 -0.010325795005602033 -0.030085351349922837 0.02730924893885444 0.022148953222136784 7.108024082890043e-06 -0.006916518312199368 -0.00011160932448387149 0.010932548824652817 0.015223056771394567 0.0036659231956267715 0.008188047794068131 0.00019353684111789553 -0.007166401124462288 0.015750081203720904 -0.027303453959009395 -0.012174089303685989 0.023513096907461763 -0.05013642904399952 0.002699274553301979 -2.864914397442145e-05 0.0013210108978902457 -0.0074175515300188176 0.01888397206532905 0.03468922673973252 -0.023863451412168578 0.03008683780093438 -0.0518856712835955 0.0037101446562353125 -0.028959020930180393 -0.02575405393318219 0.00937025781931066 -0.004589419575312985 -0.0024260845779550504 0.0004540054124038573 0.023432089369753446 0.009424870639994797 -5.45467100777858e-05 -0.022580614938990776 -0.030820761932244395 -0.025802106687260958 -0.021671140924180543 0.029416433930939515 -0.017370515084460546 -0.01186578304663118 0.03592934326746649 -0.05220052213288185 0.03461411619457708 -0.025027204577482268 0.04456886110866367 0.048869967289837064 2.704330132277302e-05 0.03768918427952854 -0.06490326169560182 -0.00011714692745845042 -0.0016513159219628398 
-0.0027812897322329194 0.0002562938855131133 0.007251309015643472 -0.013428392476183049 0.01079317397102267 0.016515661351714193 0.023948191627150298 0.0014757840992789424 -0.013222020462554326 -0.0009764434028157032 -0.00011182840419155642 -4.893037026494769e-05 0.012707390318309074 0.001246094387165945 -0.026288652716982573 -0.013190552650761756 -0.004722546015458013 0.00032501593842132514 0.0049709583091304315 0.006785703298603112 0.05092154116688429 0.0007851420802207276 0.02589102618980579 0.00014069040502898624 0.03287951866004944 -0.00024621142265750587 -0.023229974120127447 0.018551004097158617 -0.0006183324490441868 -0.019487028900619298 -0.03600780082634341 -0.03392129379024707 0.003950173900652706 0.002511391551870715 0.0552132134294208 -0.004341944794055652 -6.722336001107641e-05 -0.00010142266959386566 0.009612852428009465 1.2283707147866794e-05 -0.007362349170442245 0.025539012931305463 -0.020147046039641396 -0.004749022132314581 -0.005917517437872037 -0.020167734584336742 -0.02562826303229641 0.034476521534255136 -0.005283050813551183 0.0006977410681901784 0.0006622589829050059 -9.449495734123472e-05 -0.05740635460785164 -0.002256567650316074 0.008256897176751501 -0.004953378953899666 0.0011562379148618465 0.0035415494038934722 -0.00564192628664799 -0.00011728051149684053 -0.027906910155176497 0.011608599918180878 -0.0007397745992519791 0.04819742528674787 -1.756386796092401e-05 0.00011547683765710601 -0.005064128020362546 -0.00023784101967779827 -0.001275178924955027 0.014983775613622645 -0.012969933206312569 0.033071932818383554 -0.00019179555355641634 -0.00012050303493141966 -0.005993702471375082 0.002352626130754041 -0.01674168776650936 0.004552200212815731 -4.3819184811809114e-05 -1.4255664351595548e-05 -0.011735217745385615 0.006838438149181469 0.002883886993264002 -0.0036731216015115265 0.0627077531285768 -0.0029913893926011765 -0.04083537127894528 -0.0026274751429374034 -0.021124722824783282 0.008051303304140717 -0.00030278916171376687 5.507452115777085e-05 -8.243818362843275e-06 -0.018231376350099318 -0.017624551421073244 -0.0022937867665469742 -7.980819465797157e-06 0.02218413972199267 0.0005041642473535735 -0.054048427594885644 
0.10131996080683262 0.07962784613904725 -0.15760377268586628 -0.03540533439963296 -0.007755682902854702 -0.12052305785852203 -0.13768102089116013 -0.03921037415632485 0.14606910438706772 0.08525067518879655 0.13253908954191346 -0.037537085259465135 -0.14830031172079586 -0.02213050266247041 0.09566972773510142 0.024772666388798402 0.04873862527389862 -0.05868195390833301 -0.08234782402936014 0.015439476740825627 -0.06836431134561456 -0.11830783197868244 0.10988048972426763 -0.08807217272216106 -0.059858864431379645 -0.017499526139926124 -0.08495661457047257 -0.03444279424073099 0.05318603783942279 0.016280011877786507 0.17004922599866024 -0.017149863098070765 0.09037683547281855 -0.009225626433207228 0.011272226887503645 0.025434094769272428 0.07664100516970754 -0.12799949040446176 -0.06526041796634907 0.03612986481182884 0.11408561067736997 -0.039227457603553305 -0.01741209733194322 0.04179521471113526 0.038427866500288024 -0.023557117587177642 0.09089966577246801 0.0031948030320508437 -0.008997960211376194 0.023508593690142545 0.023574306382622968 -0.00639461735241715 -0.0371153033699493 0.04387639961860156 -0.048830307172712716 -0.015570860583621116 -0.05867206452412293 0.11233619460014627 -0.054357061558851075 -0.055505127352219276 0.15072733599398633 0.027397050261773283 0.01579270520089892 -0.08698533318640424 0.028652950460684255 -0.021982413955273658 -0.013435883780959647 0.029286872830261795 -0.00172154144564075 0.0068696811148023975 0.04161915157048551 0.039097572903863925 -0.03180803802954286 -0.011207476928097159 -0.055826639325386083 -0.1312804262978873 -0.07906543344133357 -0.07099598450014828 0.04707143154569609 0.08188866491230504 0.09258272256134412 0.05338924777197191 -0.20800041396138672 -0.03216188553368171 0.06827479532164614 -0.10185585141413404 0.07976727246209059 0.040399278602313585 0.032997824364247565 -0.11305916060732135 0.12106829624452006 -0.04443222611871168 0.05809811325637206 0.029468258191598682 -0.11473026664426782 -0.024046029817120132 -0.11704865103288219 0.09740281035372902 -0.1258646504900714 0.11044332745731669 
-0.031076378540503165 -0.00018220171659049148 -0.025650895166960782 0.03700272586597029 -0.03883447182905159 -0.026764474416423017 -0.020075097071760067 -6.113232722159239e-05 0.028658584835010645 1.0942787806496294e-05 -0.012936219627838391 -0.0016089779762836936 -0.030432106289362378 -0.01644681583859695 -0.04955329320101743 0.06904005423181157 0.044177102960423834 -0.001380750583707501 0.018172174971622317 -0.002550028535702578 0.010784310282960318 -2.1241130118820272e-05 -0.05260408866098688 -0.023900658102904315 0.07388085308231118 2.0213206037472122e-05 -0.01572024625851635 0.024406134791933858 3.269894955706958e-05 0.0017193263430984773 -0.05601095725789698 0.028194056517928428 0.004392946408252991 -0.011721674532842393 0.0002962705273594137 -0.054550370586174804 -2.1353985187170576e-05 0.00816866375212515 -0.04659036143517561 0.002627490945756284 -0.010285804435808267 -0.0032493104717393104 0.04235583672162932 0.014696869361666485 -0.012056723390023689 0.00642054446126962 0.01955001643569085 -0.05539209238676863 -0.028860815768893478 -0.0002781024458868757 0.0017809911082947555 -9.875012655650265e-05 -0.027718019673009603 -0.032253232292579266 -0.011837047361656479 0.08036941921504932 4.7541966684570695e-06 -0.019776124586386397 -0.08313363509143437 2.7596110637507258e-05 -0.030989856563790594 -0.034308834958251155 0.009458924849860962 0.029256911423653487 -4.745434691603059e-06 5.411597916080794e-07 0.01599824088092359 0.00410564916000233 -6.348961389900206e-05 -0.04009733221767999 -0.00403087528896058 0.035653671102603396 0.0419028302478693 2.453677303704116e-06 -0.005306964228561137 6.313267221203235e-05 -0.037254994296883226 0.0150950877535052 3.528026444713943e-05 1.6470591075645494e-05 0.04010787154850617 -0.0043335247502944395 0.027466154634789883 -0.0016141214187710632 -0.03279279268222463 0.04055922791579222 0.009108559389180414 -0.003611229752721449 0.06470975762165494 -0.01937906221885829 0.048677769575074435 -0.012207121623348569 1.763163704286968e-06 -0.06848234253786367 0.033000381055858764 0.0011165975449711689 -0.005393012013671768 -0.00012371606285704317 4.444487419750746e-05 -0.017637955156894345 
-0.037052667629428715 -0.0571741583886418 -0.02194763933861638 -0.08915764467571395 0.0864395847368734 -0.019745975091207027 0.02480647329537158 0.060449773382142025 -0.028612760493811604 0.11973088325207415 0.018634186339836323 0.08117292469879606 -0.11948024598195366 -0.02370363216594213 -0.038596831995752375 -0.025324019850527554 0.03727476583722251 0.04382465855669509 -0.044370890827108635 -0.07354721085702592 -0.008007156635442802 -0.01862854216579258 0.07588258087044482 -0.018982870772200622 -0.06789847924644124 0.005836762229930807 0.018804278315308183 -0.06028313778839674 0.1255318636632402 -0.018070484233331165 0.02968096631233497 0.042845702645661426 0.05895884344167882 -0.05580891468790062 -0.06092199154766864 -0.0176303544155036 0.03486717832780852 -0.006065555367948802 -0.11547163872264685 -0.0006650373319247195 0.1501914279906658 0.006826205993960785 -0.06992898428542871 0.0510137844198572 -0.1469623022828417 -0.06373634357697609 0.10642089646985775 0.02483187903432943 -0.012886697232233511 0.030832706158517867 0.06316781567091068 0.03303022413043463 -0.07638747784920716 0.05555077305897018 -0.11972232918611103 -0.07123984702713636 0.010794002437245247 -0.034079556876728576 0.024334760397845157 -0.05335555374571226 0.04484512769980793 0.012543892502378211 -0.012815231084588083 0.030800712684704662 0.03899416526385332 0.0011942553231025644 0.03677099022634269 0.01974023558178368 -0.008851695713735033 -0.04593378252848264 -0.0136957778778416 -0.051729296444211516 -0.018055625114271095 0.018837230832480848 -0.09192331624171274 -0.01634405729271226 0.007421262601592221 -0.05649925724678658 0.00010528861191123014 -0.08469001339354511 0.11838698407027101 0.002506490354092451 -0.015057848723170685 -0.07481384080716807 0.06017290486929643 -0.04641371340433577 0.05893802645769464 0.008673432014341016 -0.08445418833814185 0.010213649197474216 0.018397379283368893 0.08518098928289716 -0.020650612304002138 0.10867647012129732 -0.04510501551087602 0.009108334491451724 -0.0027759577160486847 -0.03802264645200512 -0.06247809574026959 0.0345517110506304 
0.013277107372496709 -0.007677264681388495 -0.05250455475135465 -0.0022736267345978816 0.005504606053841888 0.04195141265537573 0.05942788417430466 -0.0981024743065541 0.019666112896564246 0.06415742753885817 0.03257887126936348 0.03076820546573668 0.07683418930578152 -0.03315773084508178 0.03720492916989794 0.018094385381885927 -0.021102048559166715 -0.0734490226718178 0.07719557475365883 0.03962606692425301 0.014944139575948303 -0.05461554586990171 -0.037361046198391513 -0.06362116623579932 -0.0011831695583881556 0.0011891029641102127 0.009062784527228165 -0.022191915117376216 0.09651793921768707 0.025783706260457496 0.11995321190550232 -0.028673655830177742 0.09689961855358206 -0.040525098727759036 0.0355255364436372 0.03415557754928943 0.09673500386824567 0.023302603533165118 0.01714959895670064 -0.08310821771946304 0.11315543554679955 0.05455739644181578 -0.001704439948598564 0.05427991947105624 -0.060240480588619444 -0.037141016098259386 -0.05840340682253806 0.0922339400267796 0.016272105419643138 0.0738904103127159 0.04581377325885831 -0.021142499548095873 -0.05054931460194994 0.0405728391775593 -0.03716069009560125 0.01141962815381458 -0.04924759115239489 -0.06977128177853288 0.017085211597236777 -0.06023295706308037 0.09945902980282648 -0.034233600437765827 0.009902782277379047 0.0684980027553762 0.0331951343285387 -0.02246418323513879 -0.029116838128415427 0.10137290065656768 -0.03197451748640275 -0.03973740364147779 -0.10449811515542137 -0.06316057903449393 -0.016336086940872272 0.08480036823393719 0.021036162060371528 -0.06519714650398861 -0.10093288073686278 -0.05124510595963915 0.04923013795679999 -0.052022074346208876 0.10246856840044627 -0.035341033780747655 -0.059439270318535006 -0.014672660250585449 0.11710805064055592 0.049574065433118666 -0.038234400324591945 -0.025413502966084654 0.0484588111398838 0.03401029642411602 0.030005332712477715 0.07298751833663739 0.07324482311232308 -0.024821405004936504 0.029035872591046123 0.024600229124280316 -0.07571378315102317 -0.012323490051881126 -0.14864843441084133 0.03040885901677989 
-0.01693445990094587 -0.0037580819551717446 0.0368502867897793 -0.041649083982720964 -0.012004621507708056 0.034637400358137345 -0.001622681825877584 0.027282681065976703 -0.09105828171787042 -0.023437284836028655 -0.008231557123085514 0.04267320766656819 0.028003314721288558 0.009776877090412923 -0.07131966807380316 0.040497361767802394 -0.060772999472414865 -0.006979376906855112 0.065291948448466 0.0072652043630996675 -0.031122165531195154 0.012406243316236753 -0.024976760332583076 0.04480617112260602 -0.03610843687234824 -0.0036063421170543122 0.05981935656653425 -0.004273102644856098 -0.07832169136344568 -0.04520261938493679 -0.05021301991992145 0.02400704010280067 0.029114315488103275 0.060138539868220625 0.027531598465069956 0.021940567585212793 -0.002817185551192955 -0.015410430501970593 -0.09309041347869566 -0.023551192800671927 0.007111204170182529 0.07861805090575606 0.008538667292859289 -0.00492587067806404 -0.04171234859647687 0.013414163762211991 0.017560528859648875 0.06945789611497223 0.01022692954206514 0.018339552855444138 -0.012985113714611569 0.001467474995096234 0.10408665149288973 0.03534698033895986 0.054923763344001876 0.003941655025045098 0.022932951656025224 -0.007102637970842794 0.08342177694831787 -0.05194588342041195 0.005832772145365171 -0.03542490974733277 -0.002917993175804398 0.0036545603048274496 -0.0018040150685892451 0.006003940489089572 0.011217574359984021 -0.02672552978687191 -0.02583515431538518 -0.051394070170542885 0.05973859139279985 -0.0870128452278371 -0.026920160960595567 0.0172092339490865 -0.06872797310792252 0.05583097937017798 0.04239616781081292 0.00574687930825764 -0.0006303215639040249 0.0016895725053281154 0.06753814355740832 -0.03978109499353029 0.04125311796119355 -0.0022415471117668514 -0.016898066353321778 -0.04789127987803955 -0.008203965246500874 -0.01959726080716067 -0.006924257094571259 0.021421997154470056 -0.04824162843004812 0.01886159133112672 0.005680863485448436 -0.022111780599978946 0.016847914905581574 0.01684296402765729 0.024311055566238277 -0.03970477935595091 0.002618207519233531 -0.04449288965862687 
0.01000114124785648 8.496449002933431e-05 0.020812938026577552 0.06083546943507102 -0.053532667133643116 0.021200025475651824 -0.003694112108652324 0.004026487664461095 0.034488780370186774 0.013345139544020813 -0.012927401230861219 -0.02928237896323862 -0.005976942181232767 -0.055479996222475195 -0.0009632155323036704 -0.05721442078426017 -0.05802981388997644 0.05680429564922235 0.04350796055467701 0.020885746285975518 -0.0044333186218092424 0.0029895469334533715 0.008550064815267877 0.016890610414974493 0.004349202833539956 -4.683205141308127e-05 0.027048663954378247 0.00021048375724455577 -0.019469620915073562 -0.06182054085078524 0.01938548780765106 -0.005128549691208329 -0.07710630814825986 0.0034251081542339863 0.003206606949417913 -0.018332441802292918 0.0015159198784362128 0.027845179019440704 -0.06006226902135025 0.07091960642921986 0.010425519148975129 0.00906942585276797 0.021188776741864333 0.03242101418278883 0.0006107586628677348 0.022192219488341 -0.022870442394654095 -0.024417054281010077 0.014597509969304008 -0.01518451233502071 -0.008567685281647905 0.012916038719153533 0.004106695979029783 0.0271607193079698 -0.014252138918614883 -0.0598666624379241 1.1208368858722158e-05 -0.06000816490193642 0.07201509803737724 -0.020080447274776314 -0.011871491924846017 0.00218544846928515 0.07594915962063116 -0.030617131893305637 0.0007940350808614523 0.005691023396760644 -0.020334979065030578 0.02492159705147952 -0.03721697621421523 -0.014513546859382949 0.045264176635308837 0.004603249814079598 0.0011705189474003415 -0.03307766506068326 -0.007234332634484597 0.03841239256025787 -0.03354152355770337 -0.03874263008031594 0.003985850939282679 0.011406852174203822 -0.002303931198733547 -0.033046662483165117 -0.012239319974617814 0.050823383319948706 -0.0029362388694548123 0.023715640718409127 0.01973339352812735 0.05211051746054766 -0.06786878399727773 0.02074879719261642 -0.023082313149945816 0.0019869086512955894 -0.02979277992518965 -0.07658286269105795 0.043070921527523114 -0.0019112327325759085 0.08799955829646436 -0.0022538306726744 0.0008471506509084174 0.013629941264801819 
-0.0651306072196676 -0.023609741925646372 -0.11718219835350907 -0.05583911370106846 0.0632315613165934 -0.1028285363846615 -0.03754980743130897 -0.07108330985278219 0.01952991798626164 0.09276237706107576 0.07078752079230918 -0.07343192416564422 0.025242765679302063 0.026970398671338144 -0.024044359829470542 0.005312080509810829 0.023298689864337568 -0.04657768270949248 -0.08827896116232636 -0.03139130605717099 -0.04701996294988658 -0.0460536753116109 0.01380603724452471 -0.0892313506502766 0.0032412610167185125 -0.012080086310639537 -0.016309359663315284 -0.023332074590913052 0.08952127143242619 0.023955258897308353 0.14718333527678415 -0.01669178684828768 0.13430677887864112 -0.020373891333791617 -0.03267195692319401 0.0036589525712495048 -0.04699777144074328 -0.10286671038119312 -0.017920177198891548 -0.06596926598314609 0.1294012233850483 0.001242579907360229 -0.03929267765329047 0.030340125103062974 -0.002945113121070552 0.01472063636953868 0.004550559019259131 -0.05274907498240809 -0.003281208742333594 0.10794066426858208 0.06443115551817834 0.0020439066153592174 -0.10160150549460348 0.05425249443280221 -0.01990954067203128 0.0018706707044642969 0.013491291801420283 0.07549491157322101 0.006282015723922837 -0.04500244107658605 0.026263129149967996 -0.025572860317849347 0.1015536611284335 0.04308516558822599 0.04847498145181377 -0.007246886370338454 0.04346047358803622 0.04938219487956172 0.14963526206257002 0.08047009318240522 -0.0924891318787354 0.03112016221806157 -0.12974366219626962 0.12265694149320808 -0.1441003824037064 -0.0966248197486418 -0.08337400766753811 0.021846956171942718 0.185740071080515 0.10561339597054212 0.03733291801663363 -0.008428353490494287 -0.0901204834947784 -0.014259731435730191 0.09876419480108366 0.05463728807521219 0.02524292222650031 -0.06932562741888243 0.009362506832493159 -0.07479415900677841 0.045085548463265006 0.015323070697621989 -0.016521673586574664 -0.025261159568280886 0.010174025110210323 0.023208738783343293 -0.03303796256412912 -0.020221504233384577 -0.04292307543713574 -0.0738724680008049 
0.01614225286789116 0.014500073594740122 -0.0013320500349365408 -0.004508928401907428 0.020213124551478962 -0.010068827084093882 0.004514982217202892 0.0036798634304495525 -0.029365089046075148 -0.003803279613543498 0.0009788628611795342 0.0003980103306880247 0.05632667242431043 -0.012688752943936713 -0.02743033575142445 -0.011803135542307148 0.022152890015588927 0.0010603548400060566 0.0672249765074356 -0.02149803392566812 6.2675176656083905e-06 0.0026611832050790368 -0.0252991937311237 0.02635503847168419 0.030240036051646973 -0.0006493761215310565 -0.030708622827181762 -0.023415238213809027 -0.007066827591572485 0.053042827240213704 0.022533727935585442 0.04258526350577037 -0.028907469811486675 0.028322061936012943 0.0097751605915679 0.047914793538051205 -0.0009650064773346164 0.006062755206023559 0.04785975853483889 0.001217189184995604 -0.008541807860828005 0.05826431901461638 -0.05345333193011144 -0.0011598745919329156 -0.06682373593479835 0.07001427217758287 0.006312672235894537 0.03322745699926139 -0.021254145883474185 -0.008434437548278464 -0.0015212847635357521 -0.00010644034586532629 -0.04372067400745474 0.010608173470988925 -0.002016282652302934 -0.005258916820180181 -0.01338085136796172 -0.0033365855338180176 -0.004567062617894877 -0.00014891107404245275 -0.0394222829563044 0.056649679134180154 -0.011488289295928465 0.034614916990102905 -0.0005541246321430096 0.0003663406583298847 -0.010625698084467276 -0.0005255206719083392 -0.018971207796400248 0.014333119197143343 -0.010434709130622333 0.05396820754977598 0.002197004215062189 -0.00010398587800296107 -0.07014274408336534 0.02787276209454056 -0.025242421372284267 0.00034379416415803165 -0.0003662617826180712 -3.905365815856734e-05 0.0620727892686585 -0.05020809811057712 -0.012109489376453949 -0.01908188575475921 -0.015000248421839 -0.019962814754931647 -0.04237518939809356 -0.019413830018612476 0.044441415332398565 0.07012519277781867 -0.014008083602673162 -0.0044075318354971325 -0.0001351037643334952 -0.06192037025366631 -0.0473003814253501 0.007682091486616661 0.00526712406682853 0.05390943676085412 0.0013026611735426773 -0.06663295758101329 
1.9323699262482002e-05 0.0004963696172811259 -0.0008198416350166702 -0.053282032257733175 0.005647367485038686 0.0033219115734490017 -0.0008040752232534937 9.252682112441719e-05 0.0013661806717815844 0.0003459866385161207 0.001834645503246197 -0.0001069747423907328 0.006730830536565367 -0.01156268343932669 -0.013094277595016246 -0.07767100207073264 0.02646972146782024 -0.0001460656044301839 0.006434420060982666 0.005295681011954177 0.024353140559351918 -9.698880619366497e-05 0.009913350675191102 0.0003188076382891846 0.0020531015727014894 -0.00019993528298946 0.050178720316107095 0.014134455689716425 0.00030870157617724414 0.027628820455583115 -0.01692798622847605 -0.027759402416886944 0.05046347939660885 -0.000697197093039563 -0.020220573499066266 0.07660095636446985 -0.000571111280343562 -0.005663912586774635 0.03724699594511311 -4.3617710149840096e-05 -0.018704552635221777 0.050019467745308514 -0.0025991268904308217 -0.00010208742837083574 -0.025841708508259714 0.06678830106841649 0.008470383066240487 0.05157360679572224 -0.018785247689331857 0.001332763516456891 0.0006717413600805253 -0.00013216881270465376 0.055401060609872974 -0.0014939475644486632 0.029882614933966233 -0.005027462935709178 0.0013783712803733133 -0.018809882274283977 0.03818313364820327 0.00015522039568809538 -0.03783799494825839 0.04550482489010401 -0.00042599245205328937 0.017427756230711806 -1.3446670203754708e-05 5.726473899064104e-05 -0.0093994808436415 -0.0001147746037300539 0.0031385463270958702 0.044705975496367144 -0.029160041242150138 -0.0469121785539228 -0.0012292699140311054 -2.745686020460364e-05 -0.016066494560838043 0.024872862025712004 -0.04674627085058963 0.013746045001989123 1.4023180768621173e-05 5.2476077938937e-05 -0.0019659669298041746 -0.0330818044728039 -0.005454256207412298 -0.023188591114993638 0.05945034912462604 -0.024009588440116726 0.05633073077680144 -0.02270368859744343 0.05297623994168675 0.037923514258558916 0.001825266328480883 -0.00015952228560821765 5.914478039000006e-06 0.009622159136754111 0.03960091891761184 0.0003974008405476828 -0.00024633707529057934 0.05833200216987003 0.0003573739854119007 -0.04056622838959784 
-0.03197933325077788 -0.0029525963947853763 -0.026697103524143506 0.03792787430966867 0.0064271495313628045 -0.026323906761645442 0.0012242934698781772 -0.0008735109140362348 0.0035009514577748753 0.0006853832719917196 3.107508201940574e-05 -0.0010375948811439445 0.011611425137637445 -0.0005487251912984532 0.00024703409949758333 -0.014630483165065423 0.01942501503097454 -0.0008103933096475583 -0.02713272957229385 -0.0008503814282531459 0.033123584552662746 -0.0005891845610296191 -0.005335678489660873 7.695761934115323e-05 0.034344034154727164 0.0015153640532264072 0.0045398277942637275 0.021844376954385063 0.0007968255996880372 0.0001927441157833341 -0.031802243675055686 -0.016982469873083335 0.0014032385249334671 -0.005715035475737806 0.006297603713195493 0.05172384990912719 -0.00035007304146932863 0.00025966675406098377 -0.019790718705076343 -4.30098608652246e-05 -0.044504876499127884 -0.06298026300299946 0.0019129611752877627 9.63179558376438e-05 0.01896228305541438 0.04616492235750515 -0.005807041609259278 -0.04311942141536534 0.0011163816025540852 -0.00308623237037139 -0.0006147746424700615 -0.000891971302918341 0.04655919006586651 -0.03755338403993861 -0.013178426942504408 0.005225448468532783 -3.0433074698600324e-07 0.009593138989560553 -0.00045571659168999864 0.000255621650514915 -0.02324251583442018 -0.017648878956175517 -0.08021548033487108 -0.015676800786346548 -0.00014627724478027647 -6.670237956498767e-06 -3.3326075385560425e-06 -0.00024628549567655005 -1.3233441547462574e-05 0.08757618544246168 0.029654125611951257 -0.03172372995400667 0.0047907673882864234 -0.00013157616502679852 -0.03258571865599112 -0.0002949279346019566 -0.012459169158569958 0.0014871156445454342 0.0002551850043973462 0.000327733000709478 -0.00862922624544535 0.0023133168405752745 0.004250058978055715 0.001161263026917851 -0.08123364399842077 0.028807773712308297 -0.04231439360758425 -0.012738353485263856 0.07749988152879499 -0.032062012191379434 0.024654336148984803 -6.116867699630634e-05 5.402454641653608e-05 -0.04708746078768747 0.009602986099612113 -0.00011985920679068857 -7.905468250084808e-05 0.0016175046716539287 0.0007325177197898808 -0.005104341746228926 
0.04886057178293922 0.10576914335223697 0.07881034941754875 0.2001110659695983 -0.0789217025188648 0.1548883005195747 0.0353231376734733 0.08773216307560794 -0.10760985417959808 -0.1440430903198528 -0.0667470194275305 0.10074597662011624 0.07300444733252807 -0.13339060835687996 -0.07495495870755271 -0.053921802987551545 -0.06261470062001231 0.12979478243924802 0.1934022948958833 0.10120003697688926 0.05829597378099389 0.12421047426110354 -0.04383267874833382 -0.14130795784194905 -0.06929147639351088 0.04786151604569801 -0.09879130285115643 0.04100536911607944 -0.05482537500538245 -0.06857010734447799 -0.0032779742110874465 -0.042904200356125015 -0.08421597872850342 0.11902268997036614 0.11419304564774366 -0.027959694983426497 0.08355804324249276 0.154079328574804 0.06752884563219737 0.06458123041158834 0.05301490777748585 0.029844229431020206 0.05452005786900448 -0.07175790587344377 0.12403246642489475 -0.019582013153753693 -0.04876245885043647 0.11867927254800563 0.08007014287075291 -0.037161867493404804 -0.03884063680740476 0.09134499291753144 0.12393750278166035 0.031037555514092735 -0.06911314346548966 -0.06381271324199958 0.013446676529310465 -0.1261284121555348 -0.007555427125624121 -0.17216020488691344 -0.06917330551560393 -0.10171525675787191 0.07409271534981739 -0.05924034020315353 -0.02720638717282431 0.04290160635394037 -0.019713122143415092 -0.09056717480857926 -0.1063319365312744 -0.056159264616985366 0.029735206391100225 -0.15146119016067158 0.061540468977744976 -0.15177190635757337 0.04155877595052675 0.1827734218768239 0.006384685315475788 0.06235884836502342 -0.1468591952569582 -0.10917398112624195 -0.13608941350470383 -0.1852390241455363 0.09770176698992533 0.05627478863638028 -0.1507581740069962 -0.1679693867370689 -0.16256205094110582 0.19036027493593577 -0.2200820058468138 0.0644511717078385 -0.15634926714894035 0.0420096458876081 -0.1321901300401879 -0.032524648117622554 -0.0749102600950302 0.03356552573524189 0.12919313703367255 -0.12928207168311273 -0.17579309603774937 -0.021091727768793037 
0.013116976360235715 0.002708673674410977 0.07566963359983324 0.08410483107231417 -0.031538434135775006 0.03617640075068543 0.025837726258235796 0.016698369396160605 0.007865790193067346 -0.0030113325844763595 -0.00918893306135719 -0.002509212397056932 0.052550401753241716 -0.06831600304320003 0.03342730500379126 -0.02666589298943151 0.041362449171145774 0.005648607651361327 0.046620611947071955 0.07208435311274763 0.010289105862661897 0.008016343420890209 0.018383850808778843 0.014311901328973364 -0.03288409523452417 0.0397574638426871 -0.1010411086358231 0.002135510599331991 -0.025242084740724743 0.013931525797146797 -0.02146575903457204 0.01645898905137097 -0.005857836899723734 0.05747283121193148 0.03591180032219341 -0.016274357821212337 0.036257668196941706 0.06281165892619062 0.020759027880407316 0.09070200677990378 0.031789374786250414 -0.007693783286388417 0.005597146573572977 0.009318570225391974 -0.04333540848486744 0.011412504356943944 0.02185404628297853 -0.0069293360101530385 0.0026949873753018714 -0.01802705275039373 -0.03968159054119603 -0.0031159008646204005 0.06929342086411304 -0.0006982022743322288 0.025668543413103952 -0.04330250147795132 -0.010156512552194397 -0.04589761830418978 0.07086176930348985 -0.03389887961833515 -0.015319911524885967 -0.025876050149257108 -0.02368340301087703 0.041700671364540365 0.005239721185846867 0.06102455313091906 0.03061125933010661 0.023470187984250036 0.011576021584275658 -0.03327765699832736 0.02372191708203733 -0.06094113463268393 0.020620831168996066 -0.0015861428331876597 0.011126378492340118 -0.011292018770070234 0.07045404539684122 -0.005951521638683244 -0.006097912959828426 -0.06830859801450997 -0.014584739432252272 0.011589097397810059 -0.016705094384684538 -0.007053948700987494 -0.023343629847079616 0.0034168193573268393 0.04517474070155863 -0.015128163096455389 -0.08378601996858552 0.04687343888773632 -0.03914350336671661 0.0283685041471247 -0.014594612015815302 -0.038831414499621776 -0.02142792717023783 -0.010598145389515161 0.08912991752134024 0.008399294289530524 -0.005973321180415442 -0.055403497626117945 
-0.004426106984905066 0.0024225471242980737 -0.10833575511635594 -0.04379691330320928 -0.019375942027128057 -0.05171268804324064 -0.051852756184619146 -0.01985026983298799 0.042399365400918716 0.06001402353568866 0.1040190009610559 0.014034042439316843 -0.10724361883433518 0.004482764081896552 0.00794245290317185 0.03013206888018527 -0.03179868111442142 -0.09094556402765704 0.0227424316131266 -0.056856267321373374 0.043443104920690014 -0.05406289599463417 0.010507982592736494 -0.0668946278122739 -0.06656641804636297 0.0004935153000395099 -0.01492539410336747 -0.03852475945437455 0.0340559993688139 -0.002666610749026908 0.04612320710719167 0.01361877182451846 0.0376486341432454 -0.01691176132390071 -0.07439160391054585 0.07601920160040275 0.0020571441108530753 -0.033745890769162734 -0.08931717930765586 -0.041286736830129976 -0.031876011726685756 0.010452447085145406 0.04060342425681393 0.04624049112353447 0.0019061340253597155 -0.07882937119950664 0.014737344096101859 0.029217354341985524 -0.019612170656207885 0.009540190625672743 0.017201607639241393 0.00033578073168975163 -0.10237968516896549 -0.0038318839555405645 0.02225603580835253 -0.022913233286950857 0.024885575061521583 0.08079064659562468 0.015001791573322886 0.04563818258410807 -0.016058039779438107 -0.06155613172973197 0.0629555246094244 0.006906052944958625 0.0044831511894275625 0.00990232434002722 -0.0033417081545435955 0.0038445208798941763 -0.017177916153702937 0.07003941328194074 -0.047860652849854746 0.11550239856882748 -0.08103986219477394 0.09677473639652136 0.01376494390097016 -0.06772166936984185 -0.0026782056494776543 -0.03048660322722751 0.040687542130031694 -0.007509075529827592 0.033153646458301426 0.061809140761756774 -0.012933351152819562 0.032541159969382845 -0.04174385241222218 -0.025810996858113798 0.05044285848500359 -0.0005912416626959016 -0.009553335883738004 -0.08856324343567283 -0.02179348359150114 -0.041006309315663965 0.05600121029392115 0.11394390293515896 -0.009394457112145713 -0.014508106969624415 0.016023762158792167 0.0027279880975330352 -0.009374556572909953 -0.04009138482759299 
-0.016718981390953007 0.013073898353346951 -0.07872340938675053 0.031109697066785045 -0.01825360425599185 -0.046875405297186534 -0.046336375817878646 -0.008602547710736763 0.010338434673607242 -0.02543716796016989 -0.026379704943659203 0.017681520601212652 0.013743976258093376 0.019396121965696542 -0.009521781639647097 -0.015511170991149991 0.025916402798673483 -0.05672442487315248 -0.03150809704170643 0.019373114989679762 0.0025125516540620346 0.0028083939364264513 -0.013282739161120776 -0.033094370181276894 -0.024321387570855887 0.001099233110425577 -0.03957826229197656 -0.03943735806424987 0.005289050929284573 -0.07369933522573746 -0.025771284861249973 0.030293139360523073 -0.02037498270749978 0.00742001034047865 0.048983319927789204 0.033992161193307134 0.0040762192641525105 0.021200544544099274 0.0130130719255556 -0.08196238390392609 -0.00495287820321502 -0.00826829939367987 -0.00011408339671119119 0.014265749924131155 0.002517757255886658 -0.07437276373242174 0.015253252906623901 -0.05234372056189832 -0.02799488514838283 0.015479635189772576 0.0004745473959692481 -0.002037049746594443 -0.06982226909584931 0.009289117404387226 -0.05737656342725251 -0.00899900519321291 0.006410203201552496 0.007677444990440146 -0.006045891917134912 -0.06146563387889686 -0.017310025837086886 -0.04336187922069797 -0.02098550849963419 -0.04448829748243097 1.0852568273432467e-05 0.011596453733899392 -0.03594063773184349 0.025694230790925046 0.020478570538078784 -0.03245509841081755 -0.05815999492359624 -0.03485693773994204 0.032885406079550074 0.011842058583658967 0.032283144929197795 -0.0728130019412236 -0.052813695776105486 0.004054453444245895 0.006225161211104319 0.004848170840972173 -0.04324600078481206 0.018855122348144078 0.005828174175811594 0.03261359724647989 0.039719581765514676 -0.04777503648127476 0.003342280435920937 -0.06308239494674572 0.03811437968242372 -0.09244920282059904 -0.026857558110371518 -0.05117355634819534 0.025644399322393263 -0.05035683679842358 -0.023740793960098948 0.007664601471152413 -0.009385552454146627 -0.004031722010301736 -0.0044283086135398575 0.02644435471611984 
0.04822280043923332 0.041531638550284 0.005112614047419468 0.07671015648042874 -0.08215627574510019 -0.01695673532967182 0.023518517857646564 -0.05240855251535215 0.06461774626650117 0.03275390155813162 -0.06429798745942111 0.0019308688994095025 -0.05378283549226902 0.008721543788656215 0.06777919800701847 0.1286626962556742 -0.06647549405616406 -0.011895977500658796 0.0010804726227698772 0.023704156357281677 0.14584141110172677 -0.04460723487986862 0.053139222494220824 0.07209298868965762 0.08769670052027194 4.128353712288761e-05 0.017147560303165527 0.05519001639904324 -0.1034507211146319 -0.0030711657826560474 -0.10680086425773941 -0.08634398944528515 -0.05630613439563372 -0.0832682108193585 0.01032719751881115 -0.11004618662750838 0.0024706240768272952 0.04301446824565985 0.013124835154988716 -0.032592312555785534 -0.006086857942769781 -0.04549906076368034 0.11065387779627427 0.011250250789315849 0.04017745119316747 0.023074852405544848 -0.05197589671913293 -0.04168121326769189 0.0724520452151849 -0.019828265876720323 -0.006884860348093979 -0.0017891361761587393 -0.013725873270673827 -0.12412087489711394 -0.005612345244536162 0.10845176513411199 -0.01042046858663304 -0.005884435259160126 -0.005071332429389227 0.08397614642964966 -0.10712021003948705 -0.03586922011438457 -0.11993296420710106 -0.1254470430245948 -0.003226149483764516 0.00019348909001195918 -0.0006103615345769926 0.03069429391742193 -0.07281464346671902 -0.018548850829410997 0.11743724195741238 -0.003068088374710075 0.07693295015291968 -0.029873806504743226 0.0024023112899386814 0.006294071726694626 -0.0023693047984913386 0.04368632591344254 -0.0008681323243961561 -0.018756861857405414 0.006940856716451326 0.0739240112887232 0.0036840771918082832 0.07777609752919139 -0.04199686420366632 0.07910541339436157 -0.015659951920305358 0.08635516851376056 0.10549616803939071 -0.11443962264508373 -0.006990618362102002 0.017727683633715165 0.005401404357483177 -0.0069299775837174445 -0.02882507663718533 0.018646828167636003 -0.032850715359329374 0.0012088469212248835 -0.0014376254972433531 -0.022034831414815537 
